3387 100
the 0.45089093 0.87672096 -0.7036275 0.5669969 -0.19160663 -0.62502545 -0.3587003 0.54573715 -0.21618304 -1.0584065 -0.6711595 -0.16175127 -0.97450364 0.25933442 0.14557259 -0.44022498 0.9897958 -0.6972358 -0.1502862 -0.3096366 -0.8119199 0.422513 -0.1412887 0.95248085 0.8596588 0.15169947 0.55416495 -0.23476778 -0.7175143 0.657581 0.26952586 -0.41666794 0.31471142 -2.2219925 -0.4287526 0.12500349 0.024080748 0.79248196 -1.0337416 0.9636427 0.48086146 0.068705276 0.4852023 -0.38653162 -0.430043 -0.72679776 -0.19556044 0.69901735 0.59891725 -0.7267044 0.24564233 0.059122235 -0.29978225 0.6437622 1.2533963 -1.1306795 -1.1606474 0.4648161 -0.32739273 0.6159798 0.9644331 1.3670894 -0.32605228 0.11400077 0.32094467 -0.71816295 -0.78912103 0.4841231 -0.5076414 -0.8938757 0.0010099108 -0.8135489 0.7282447 -0.21842086 -0.08388458 0.78589207 -0.84078026 0.45384598 0.17102163 -0.5040476 0.15004773 0.10903695 -0.14899305 -0.21822886 -1.0772657 0.10059892 0.7411067 0.20410252 -0.20156744 0.75688547 0.09195272 -0.37148803 0.07218931 0.019174164 0.68316936 -1.2364206 0.59259 -0.9852788 -1.0350795 -0.7606769
’ -0.7533225 -0.17932393 0.20551574 0.65998113 -0.05262409 -0.23209539 -0.7869516 -0.35685512 1.3197453 0.14570673 0.13626485 0.5557014 -0.4686809 1.7710314 -0.16755143 0.35858414 -1.1344899 -0.58329153 0.21887854 1.0101442 -0.08923062 0.82964677 -0.11354876 -1.218338 -1.0902416 1.0035237 0.30655944 0.12306234 -0.63216347 -0.99664915 -0.3070553 0.40224102 1.2151655 1.085079 -0.30796725 -0.89228636 -0.58519804 0.78855246 -0.16389525 -0.06365067 0.49293602 -0.91167855 -1.148156 0.9955902 -0.7010223 1.1257898 1.3815268 0.24886455 -0.25004658 -0.75292826 -0.23922418 0.4991182 0.6691371 -0.5443929 0.2815823 0.4018793 -1.6969076 2.310801 1.0363615 0.03918268 -0.36487404 -0.5466817 -0.20045355 1.7931205 0.7528815 1.0634387 1.5683378 0.7606898 1.1756519 -0.55351484 0.9158541 0.49121636 0.052797075 -0.47762153 0.35987794 0.895473 -0.4999042 0.57262456 -1.6499498 0.0039468626 0.30157438 -0.11056395 -1.2694991 -1.2849507 -0.8255 -0.7542208 0.7352363 0.91967225 -0.7753389 0.6659191 -0.52696127 0.57261044 0.6402076 -0.6114847 -0.86994475 -0.03355579 -0.30776978 0.25274265 -0.5759233 1.0493649
and -0.3706907 -0.3104822 0.47395924 0.011747016 0.07028107 0.7781804 0.1274654 -0.23559736 0.3906428 -0.14863165 0.36836275 -0.40065107 0.9879088 -1.0542492 -0.22905283 -0.516101 -0.39102465 -0.532222 0.32304484 0.956522 0.52017987 0.9926176 0.89300346 -0.24905269 1.2009788 0.7761971 1.0609287 0.5182939 0.44113553 -0.071906194 -0.46075508 0.73605317 -0.686219 -0.24983418 0.20272966 -0.03175071 0.9130578 0.48501208 -0.24640548 -0.47251824 0.019963559 -0.2790587 1.065443 1.2795731 -0.80342776 0.9487094 -0.8441412 -0.93743944 0.5903524 0.22452518 0.5653764 -0.19012482 -0.05197516 0.050817832 0.14643249 -0.23667653 0.30061024 0.5755318 -0.64289325 1.1008085 -1.0296435 0.5464655 -1.0524347 -0.8558594 -0.79087645 0.43309724 0.2451074 1.038654 0.18435365 -0.71317774 0.16816045 1.2249978 0.3504916 -0.010521437 0.21786912 -0.19018815 -0.6068677 -0.3989805 0.5590972 0.24513741 0.6581746 -0.26278427 -0.5934689 0.6385079 0.8398462 0.19777006 -1.0100912 0.061163586 -0.7963082 -0.543131 -0.19185737 -0.7818897 -0.1941493 -0.3069979 -1.1432325 0.75358856 -0.8898404 0.40929264 -1.0008477 0.68528676
to -0.9256897 0.17633647 0.27966392 -0.4459881 0.11902173 -0.90431076 0.98979753 -0.044232056 0.37566328 0.24977466 0.6152995 0.5667467 0.5687209 0.8315628 0.83550125 -0.983176 -0.31081384 -0.21966435 0.013841079 1.1127518 0.10217528 1.3561902 -1.3145794 -0.66498613 -0.3965417 0.3573036 -0.22544047 0.34347042 -1.0397404 0.11783267 0.66972506 0.83655167 -0.6644386 0.75243646 0.68924963 1.4989856 -1.0243008 -0.3765127 -0.48697442 0.4907985 -1.3975724 1.2473171 -0.66854805 -0.69990367 0.8261572 -0.47148165 -0.5658607 -0.31635854 1.3531513 -0.71997684 -0.37978593 -0.33263677 -0.21439311 0.96904296 0.25164154 0.5203184 -0.28516346 -0.46461645 0.28234068 -0.85330856 0.01738074 -0.84719443 0.25799116 -0.74639857 0.8282244 0.2791542 0.05864427 1.1097761 0.56753904 0.8772481 1.1873002 -0.1853568 -1.0632486 0.11604822 -0.40908083 -0.45071667 -1.4739158 0.7854828 -0.8779937 -0.99214107 0.35339242 -0.18459187 0.66242087 0.39836982 -0.03025644 0.6592241 -1.0251336 -0.47955427 -1.0603358 -0.98737836 -0.4041677 0.3297436 -0.4451972 0.057710752 1.3747619 0.2517476 -1.5683317 -1.2366639 0.120958455 -0.6930618
a 1.2953831 0.5847733 0.15340304 0.6930519 -0.82539976 -0.019602504 -1.0196344 0.16022913 -0.08970167 -0.0055876803 -0.8747917 0.7599514 0.7066292 -0.9040349 1.440911 0.47335175 1.0483265 -0.6871473 0.36060688 -0.87510836 -1.9342891 0.37459227 -0.06826081 -0.18271121 0.22766432 -1.238168 -0.17691499 1.2459689 0.13520387 -0.7972696 -0.21095654 0.653997 0.010892927 -1.2934399 0.6809215 0.11752099 -0.77059853 -0.49741542 0.27359396 -0.45515254 -1.1968223 0.30272502 0.6888466 0.13707793 0.70306826 -0.7615567 0.051513877 -1.5350207 -0.19710247 -0.09761065 0.18341699 0.98646224 0.89903647 -0.36714116 -0.2367953 0.1203718 -0.2219835 -0.15570897 0.121904776 0.1881285 -0.92429656 -0.26850364 1.1959784 0.24023953 -0.1351111 -0.09461744 -0.33361492 -0.3593887 0.8330684 -0.17376532 -0.102964535 0.5688896 -0.09149498 0.08917025 -0.31228474 0.85053664 -0.342399 -0.50555205 -0.5047245 0.64096236 -0.89482474 0.7491499 -0.33217537 -0.29584596 0.15373603 0.40520468 0.36623567 -1.9411477 -2.0024085 1.6681745 0.9898659 -0.46429282 0.48691905 0.40252787 -1.2775837 0.23213175 0.13587388 0.6854464 -0.9363586 -0.6082293
of -0.41026264 -0.72797614 -0.16566975 -0.007980524 0.3669621 -1.4183002 0.40607262 -0.6968119 0.6659167 -0.759737 0.3699491 1.0377606 -0.8494631 0.105175756 -0.04142942 -0.2608197 -0.18016814 -0.09724952 -0.0016440598 0.13723046 1.380378 -1.4554605 1.1601557 -0.503345 -0.72088385 0.4064141 0.6474445 0.4619141 0.88927144 0.1443986 0.07170392 0.44999364 0.90913683 0.095316134 0.7136335 -0.018391315 -1.3452872 -0.096301965 -0.50904614 0.022548871 -0.48255703 -0.49548906 -0.34920216 -1.0017403 0.7374731 -0.8302957 0.5345543 -0.013375839 1.0880194 -0.47541437 -0.051565595 0.9581667 0.7671375 0.9304836 -0.66710436 0.9294925 0.92633474 -1.313584 -0.80154866 0.21210144 1.3171939 0.39048567 0.9113035 0.6608301 -0.8557598 -0.008664923 -0.20429376 -0.123778954 -0.80929315 -0.058274534 -0.47614 -0.0014754063 -0.26947847 0.93273413 -0.22334759 -0.4100319 0.8256591 0.48609626 0.07546409 -0.043288138 -0.4329237 -1.5780231 -0.38490406 -0.9619374 1.126533 -0.72514063 0.8649738 0.38890633 -0.686429 -0.31378374 0.9818349 -0.9388483 -0.70740473 1.3135347 -1.1798694 0.12667029 -1.110446 -0.65529186 0.073519096 0.7481428
she -0.08623654 0.13491555 -0.73804754 -0.83963233 -0.2803852 -0.032191172 -0.22714879 1.2564336 -0.9478038 -0.0358798 -0.31600004 0.48268387 -0.16957618 -1.0872653 1.42819 -0.7824512 -0.58976674 0.82070017 0.31450623 0.12185845 0.82838243 -0.22568135 0.36659372 1.2114846 0.33130687 0.10274636 0.61337966 -0.33463642 -1.1925164 -0.09647975 0.7198137 0.90015864 -0.7500514 -0.41441503 -1.3281943 0.9992195 0.3537081 -1.0916617 0.8101327 0.12671311 -0.2062906 0.0037724515 0.5158213 -0.7216686 0.095571935 -0.8400485 1.3163996 -0.5807663 -0.98456347 -0.10996984 0.4574068 -0.17209634 -0.77578545 -0.35775766 1.0268948 -0.7939733 1.0030651 0.08702691 0.763508 -0.134999 -0.14387493 0.041024227 0.20626943 0.14072861 0.45236897 0.35162398 0.7253101 -0.75711894 0.4126534 -0.66682404 -0.3409901 -0.32599002 -0.80596423 1.1412731 -0.41498068 0.11235236 -0.3388733 -0.8030347 0.060358617 -0.22644275 -0.24183547 0.47788858 0.7418004 0.42592943 -0.47769406 -0.63735324 -0.91305375 -0.5590117 0.1585637 0.50743467 0.32743722 -0.21877505 -0.61168385 0.043641202 -0.41348872 0.59485865 0.43449473 0.68969196 -0.81380534 -0.26663068
it 0.5808892 -0.6494036 0.6075427 -0.6114542 0.1308074 -0.79348505 -0.2631577 0.45640308 0.39124355 0.7392143 -0.19883206 -0.0009208073 -0.27806687 -0.48369154 -0.0072467597 -0.28625154 -0.2130803 -0.4439163 1.0907348 0.8248951 -0.19329573 -1.0870687 0.22883989 -0.023577545 0.95104593 0.39434117 -0.82332635 0.31478035 -0.8283732 -0.13961372 1.0459814 -1.0860462 0.041782483 -0.33355352 -1.3812627 1.1300983 -0.24326608 -0.23276734 1.0103683 -0.058127537 -0.33433935 0.32434848 0.36883745 0.50366026 0.60080343 0.59079057 -0.37463027 -0.07543243 -1.1834515 -0.27946517 0.24325944 -0.18577193 -0.33912194 -0.85644627 -0.37780634 0.15713486 -0.27539358 -0.38835678 0.673958 -0.8077999 0.13556457 0.05197696 0.6387786 1.1585667 0.21461831 -0.56444895 -0.55577683 0.21568651 -0.51622134 -0.7802559 0.41020113 -0.15154165 -0.44696274 -0.49350083 -0.61269253 0.23951718 1.300224 -0.8764306 0.5185193 0.3586898 -0.38167858 -0.8737542 0.06014136 0.51350564 -0.5193677 0.69262177 -0.9320288 -0.43684083 -0.4406796 -0.20506746 -0.3211456 0.53766567 0.0108523145 -0.3767402 -0.052043084 -0.047495537 0.96316147 0.7796979 0.45500174 -0.19216004
said 1.2192734 0.1547136 -0.68623745 0.0060307346 0.6438868 0.24287249 -0.14838997 -1.2057563 -0.8216447 -1.0483372 0.12222242 -0.7768382 0.5988991 0.20146197 -0.6783624 1.2455593 0.5911673 0.9793951 -0.35574093 0.73141634 -0.3981236 -0.9069998 -0.8573979 0.6970469 -0.51247865 -0.18173884 0.8497953 0.115095705 1.2484659 -0.6661556 0.4746997 -0.2999524 0.76037884 -1.3449737 0.85185796 0.187864 -0.7759918 0.27696195 -0.3544857 0.4637439 0.040281013 0.5699764 -0.3165773 0.044378918 0.21712375 0.44115913 0.52746385 0.9079681 -0.3069058 1.200756 -0.46688423 -0.29780045 -0.71697116 -1.1092974 -0.1410694 0.61392707 0.07081128 -1.2518913 -0.020633737 -0.9913629 -0.58725005 0.34302443 1.2591127 0.12097266 -1.1802825 0.060662244 0.9245224 -0.6884987 -0.95430243 -0.734412 0.61098796 0.305081 -0.20827504 0.064719595 1.3613111 0.22623557 -0.5468075 0.7382457 0.41764808 -1.0569948 0.4124393 1.5165695 -0.12377377 0.46428156 -0.47469166 0.9582656 -0.21257934 -0.16614404 -1.0086821 0.4542337 0.20491496 -0.027116016 1.3445624 -0.27616933 0.9509653 -1.3107468 -0.6436874 -0.5640125 1.1510524 1.1671093
in -0.34411547 -0.59403247 -0.65561986 -0.2618967 0.57185006 0.11502032 0.2563646 0.9203206 -0.57000595 0.8166353 -0.45370921 0.41668916 -0.7827734 -0.8290417 -0.39842328 0.5716176 -0.3867048 -0.34822616 0.0020188258 0.6760012 0.8829166 1.0743719 -0.0231584 -0.73141706 0.7995699 0.84469724 -0.568568 0.48229775 1.616607 -0.14187737 -0.5573714 0.047551516 -0.6383374 -0.27475747 0.21473372 -0.72751456 0.44922045 -0.033138327 0.16894916 0.6274494 0.26782337 -0.9345568 0.5381694 -0.8457327 -0.4616717 -0.63864464 -0.16146176 0.6360491 0.63107336 0.3963575 -0.43702826 0.89364576 -0.065479785 -0.31235152 1.5434624 -0.90579355 0.78514165 -0.5992593 0.39595774 0.06508449 -1.2558793 -0.88717985 -0.011959898 0.36093846 0.57561684 -0.713215 -0.7001984 -0.2897749 -0.31669194 -0.57868767 0.8569489 0.41356248 -0.50779897 -0.9564713 -0.43579397 -1.0798893 -0.10815749 0.7335948 -1.2102134 0.16755268 0.0404504 -0.32701004 0.71266586 -0.4741284 -0.18984793 0.68639225 0.57928073 0.6647009 -0.26489753 -1.036225 0.54816604 0.33514297 -0.11890483 1.3549571 -0.64926475 -0.3625772 -0.34046972 -0.5760517 0.13125198 -0.9557065
you -0.3632442 -0.086648725 0.8863285 0.88635343 1.0798542 0.44458246 0.64489627 0.6150715 -0.35388777 0.18004033 -0.18798277 0.35660762 -0.2770105 0.2676531 -0.36842918 0.49595743 0.60764587 0.22679815 -0.53357583 -0.15159768 0.15111575 -0.44337296 0.9765651 0.36152896 -0.7314231 0.2506545 -0.81566674 -0.68428886 -1.0237467 -0.117386505 0.5380252 0.67754275 -0.36454388 -0.49791694 -1.0276463 0.61989063 -0.8184716 -0.9040023 -0.58846736 -0.18292046 -0.23632807 1.0445775 0.16044822 -0.014005286 1.1128305 0.03399331 -0.40466878 0.21375237 -0.29301733 0.95670193 -1.7230887 0.117670424 0.48973024 -0.067826726 -0.2122261 0.27065697 0.7367283 -0.8203969 0.39643693 0.53352755 0.9285571 -0.0541577 0.50249827 1.1243458 0.27027965 -0.77070665 0.4349779 0.7093651 -1.1717844 0.7202216 0.4021674 -1.0569482 -0.028578995 -0.26524493 -0.42962274 -0.69618267 -1.2950802 -0.8543362 -0.9004666 0.02117761 -0.8554656 0.4436617 1.1968834 -1.1174474 -0.82498085 0.19091114 -0.88370234 -0.017456261 0.40519014 -0.39322254 0.6611121 0.6338099 0.47863543 -1.4340597 0.37140626 0.9223663 0.84256566 0.57942605 0.06195164 1.092491
alice 0.3563271 0.93738484 0.87913156 -0.11005511 -0.88934475 -0.47648323 -0.7222884 0.7669276 -0.9120209 -0.53296185 0.47180355 -0.7937269 0.9079284 -0.674818 -0.03223614 -0.33342013 -0.21920177 0.9108198 0.60013676 0.5698206 -0.23831202 -0.94206804 0.2985884 1.25432 -1.0924543 -0.46167213 0.8015136 0.72263896 -0.29268214 0.16442801 0.7054396 1.0034028 -1.1422364 -0.4899685 -0.8534719 0.07126459 0.48993182 -0.6182906 -0.4944423 0.54037374 0.84368205 0.16519918 -0.07873799 0.22778475 -0.5516985 -0.030774822 0.72234946 -0.4236367 -0.9714556 -1.0262924 0.898747 0.46884438 -0.74667364 -0.741204 -0.73191845 -0.8193475 -0.5838128 -0.21992767 -0.24237931 -0.5188844 0.92821324 0.7422542 -0.17689584 0.3061751 0.9850714 0.68674046 0.49764746 0.010729942 0.21367061 0.18918803 -0.17248519 0.6185465 -0.21293792 1.6911247 -0.65680534 -0.8735693 0.08620703 -0.5888784 0.23523733 -0.8982555 -0.29477298 -0.55123985 0.283714 0.38040626 -0.12066647 0.54307336 -0.38384175 0.3631153 -0.665816 1.4526187 0.3540319 1.139896 -0.9611894 -1.1727563 -0.46838203 -0.13039827 0.9046807 0.15686026 -0.6822505 -0.5011414
was 1.0396059 -0.73310417 0.036637604 0.11108799 -0.08047205 -1.1546232 0.15515146 -0.3470938 -0.26784495 0.13516904 0.3388668 0.41527644 0.29603276 0.3838374 -0.21770301 0.30289993 -1.1924238 1.3238646 -0.14579113 0.2698223 0.76380134 -0.026448803 0.25379953 -0.50056016 0.42963034 -1.0359206 0.31876722 -0.18900375 0.1979015 -0.6292224 -0.4965642 -0.044390008 -0.8755113 0.9099182 -0.22025828 -0.77025384 -0.21159688 0.3798349 0.13779029 -0.01665609 0.59580725 -0.80913675 0.5268274 -0.6453898 -0.99176913 -0.1772287 0.059013855 -0.79271066 0.39924154 0.48531476 -0.7540259 0.44773623 1.0839093 -0.8699508 0.6876513 -0.6989101 0.4100683 -0.5309721 0.5027612 -0.19855577 -0.0862378 0.9808695 -0.2222625 0.5667032 0.41696617 -0.20328459 0.10278199 -0.04375301 -0.13624698 0.78307855 0.36126935 0.21670142 0.68527293 0.79989004 0.29467958 1.3388143 -0.27550247 -0.50568867 0.647428 -0.48846847 0.30300584 -0.45762554 -1.0164261 0.4656522 -0.33317804 0.66291636 -0.07088032 -0.07896511 -0.9143602 0.3410624 1.3419689 -1.2943448 1.0493383 0.17569779 0.3550532 -0.51709574 0.14728978 0.72320145 0.7647799 0.32728678
that 0.536993 0.079434484 0.12545244 -0.792409 -0.60526246 -0.051127806 -0.43033245 0.49525094 0.3690914 0.6241463 -0.47705597 0.1785013 0.40543428 0.63043845 0.18897705 -0.76522595 0.27684766 -0.06397925 -0.37195152 -0.35891157 -0.22105621 -0.50306267 0.6861728 0.11498223 0.15548973 -0.07019872 -0.09169619 0.42338726 -0.35614574 -0.42629436 0.73668987 0.011067671 -0.34999314 0.55544364 0.41031563 0.389691 -0.4341456 -0.46793357 0.29237923 -0.3060325 0.4279408 0.05805246 0.085200205 0.0068505895 0.47528479 -0.37036684 -0.8860205 -0.4613212 0.32919458 -0.734787 0.6038696 0.5564136 -0.571378 -0.36887404 -0.2786541 -0.78561085 -0.030307263 -0.6945291 -0.4315943 -0.6784312 -0.41939616 -0.30925947 0.5823877 0.37671337 0.5768433 0.06661463 -0.3758233 -0.1610055 -0.28728005 0.31251287 -0.62538034 -0.6599022 -0.49265516 -0.26775855 -0.110265985 -0.21205075 -0.29464984 -0.31811827 -0.4749177 -0.58298063 0.6784193 -0.4554287 -0.111928515 -0.52694196 0.14845504 0.34310195 -0.25870892 0.38206682 0.3061718 0.46255994 -0.47666222 -0.4481092 0.45107153 0.28329065 0.3449562 0.38501295 0.23110433 0.031548254 0.5224413 -0.37968582
i -0.78879184 -1.1162885 0.04382457 -0.18176891 0.46653557 -0.19528502 1.0034729 -0.32078028 1.0416616 0.39467075 0.39698628 -0.28689635 -1.323765 0.6731437 0.27523938 -0.23840141 0.2105252 0.39035338 0.21894774 -0.49933374 -0.368132 -0.41509354 1.2515516 0.1375513 -0.36248472 0.66802317 -0.8163261 0.77931195 0.17833585 0.26526293 1.3060491 0.20696682 0.60483474 0.06689463 -0.9614038 0.89423656 0.15145063 -0.9620685 -0.32516468 0.59009737 0.77341133 0.9070206 0.17764254 0.27423123 -0.4129144 -0.73792773 -0.013827166 0.7064992 -0.6538655 0.2188143 -0.28681925 -0.17016533 -0.9448459 -0.66646326 -0.9414558 0.9073779 -0.5998299 -1.0362248 0.27449155 0.12603544 0.4242319 -0.057233084 0.51295775 0.5459627 0.34986165 -0.19573939 0.3525651 0.96828306 -0.0019420494 -0.0056172158 -0.28677726 -0.92902946 -0.94653684 1.1360778 0.4860816 0.73616564 0.074382074 -0.37871942 -0.4912292 -0.6867102 0.5295995 -0.2589914 0.9178177 0.35900816 -0.2721229 -0.8740369 -1.061642 0.011085751 0.47068906 -0.5395943 0.2597378 0.5495296 0.49088845 -0.0020284776 -0.15993477 0.4111876 0.1300307 0.60591215 -0.3194154 0.865831
as -0.1275169 -0.8880607 -0.7316897 -0.108029835 -0.23364778 0.606229 0.36049327 0.30671182 0.50017667 -0.3621421 -0.8559273 0.33198184 -0.37698048 0.36909217 -0.2636964 -0.600561 -0.9575085 -0.15842292 0.4388381 -0.39528516 0.09770436 0.054477792 0.5775948 -0.14894965 0.15338244 -0.16968748 0.38559982 -0.20346737 -0.4078388 0.048544813 0.3520788 0.13637473 0.5944452 0.5713636 -0.3365522 -0.27237678 0.10812489 -0.36825213 0.7723352 -0.6377809 0.55612946 -0.20719133 0.35035956 -0.30171597 -0.15657379 0.8071573 0.55531746 -0.72498065 0.54357094 0.056540728 0.77471244 -0.6382152 0.3349084 -0.10094073 -0.72023535 -0.8245425 0.5384673 -0.6468077 -0.36114106 -0.9319078 -0.049855456 -0.89211017 -0.04032982 0.10108079 0.47371012 0.41916654 -0.58000714 0.14264016 0.3556382 -1.1434461 0.55197734 -0.20752786 -0.2518711 -0.41325262 -0.17617825 -0.12156943 -0.88292503 -0.20430656 0.9813382 -0.7805823 0.7259983 0.21081874 -0.44609365 0.21159849 -0.13862488 -0.14348175 -0.48728648 0.6045453 -0.15796588 0.25771284 -0.12288496 -0.477668 0.39989308 -0.45071793 -0.122953415 0.81356853 -0.11576121 -0.42332146 -0.15450796 -0.9620855
her -0.07885408 -0.0018574704 -0.8060946 0.10542511 -0.7013438 -0.110398844 -0.9594447 0.37364653 0.3439629 0.15177618 -1.229511 0.14563574 0.7182782 0.012637271 0.2527907 0.41280863 -0.5683966 -0.40867049 -0.18071744 -0.63877386 -0.2405442 -0.4578213 1.0391827 -0.6876199 0.9425687 -0.32196096 -0.95417154 0.5919562 -0.8807514 1.2440839 0.27906352 0.24738315 -0.47043446 -0.1709724 -0.4171423 0.47307009 -0.49195755 -0.445167 -0.13740069 -0.7355558 0.37634438 0.05453243 1.2369251 0.60205597 0.4365393 -0.27529812 0.52906823 0.09035768 -0.09166855 0.39962274 -1.2243773 0.63639486 1.0362576 -0.38075158 -0.42417035 -0.7555727 0.2519287 0.99718755 -0.04144861 0.25254354 0.50442094 -0.30307895 -1.2987384 0.6519447 0.23484091 0.6507517 -0.7146724 0.6111614 1.1961437 -0.18024948 -0.35330808 0.4082682 0.24067554 -1.3508652 -1.2112504 0.34733662 0.47917002 0.33683097 0.131916 0.42354038 -0.91321677 0.35465395 -0.4592834 0.8144323 0.104979575 0.42795247 -0.7035075 0.4597596 -0.25814238 0.3473567 0.8869805 -0.4179192 0.24548739 -0.05611542 0.611361 -0.7551019 -0.11670307 -0.23439911 0.18349269 0.65278023
with 0.3646624 -0.27747115 -0.9600889 0.5240798 0.6255288 -0.22190401 0.013113197 -0.7316376 0.048625376 0.30372417 0.41672775 -1.246777 0.24156861 -0.096960634 -0.6800397 0.19044994 -0.26938146 -0.41025186 0.69605416 -0.41128597 1.0624175 -0.034691278 0.69767106 0.78837603 -0.29648182 -0.00089817063 0.532823 0.028264731 -0.10960896 0.032481693 0.6390093 0.2348775 0.1463688 -0.4011996 1.027653 -0.5365297 -0.4403856 -0.6828517 -0.48275813 -0.7427698 -0.11989747 -0.029007796 0.22130212 -0.088853166 0.3933945 -0.7587875 -0.64132833 0.24371491 0.34612736 0.19092667 -0.30263233 -0.36871552 0.30482465 0.114243016 0.34411827 -0.551669 0.5510882 -0.3855024 -0.7320519 -0.25235716 -0.8934539 0.68102735 -1.1178571 -0.6609738 1.0897365 -0.23908654 0.17584988 0.6932363 0.2216536 -0.27915612 -0.25644204 0.85097855 0.81430787 -0.38241568 -0.7679175 0.38949245 0.07701707 0.42295042 0.16697836 0.443403 0.24335822 -0.09652798 0.55246377 -0.6114925 0.6453911 -0.31598526 0.40334934 -0.25079712 0.6070826 -1.0546575 1.0500817 -0.48846322 0.0022039767 0.68584937 -0.277571 0.5835158 -0.8299236 -0.4067032 0.034440354 -1.0553459
at -0.67796934 -0.84079254 -0.29582447 0.780916 -0.4714838 -1.2117096 -0.57777154 1.1365061 -0.2445404 0.37932146 0.427345 -1.1972122 0.25251138 0.074576266 -0.3256498 -0.40709057 -0.7772136 0.21208832 0.9107805 0.65022445 -0.3702342 0.38837752 -0.53035945 0.061519146 0.024077574 0.3903738 -0.1193595 -0.47584397 0.5749969 0.83211887 -0.30154046 -0.016682306 -0.6379077 0.47240153 -0.22033168 -0.20140904 0.45624283 -0.78547347 0.7037375 0.25297943 -0.0009794915 -0.5574734 0.26845938 -1.1123464 -0.39797857 0.9427923 -1.3282875 -0.006464921 0.5839472 0.71467483 1.6349331 0.07265111 0.09525796 0.42994878 -0.5848527 -0.23037077 -0.035109032 -1.0585608 0.15870145 0.1397866 0.27657503 -0.025318338 0.55210596 -0.67862433 -0.5510914 0.87758183 -0.10418505 -0.49762604 -0.19263747 -0.4770708 -0.6019102 -0.020310897 0.5367622 0.95280945 -0.22145174 0.2927835 0.78378785 0.8350603 -0.050575506 -0.6095735 -0.79316676 0.9166057 -1.2378292 -0.8225358 0.28393182 0.8301369 -0.5032094 0.7656633 0.3267415 -0.2262295 0.19596708 -0.5301986 1.1841224 -0.99450135 -0.5016629 -0.7490386 -1.0364922 0.6572869 0.0617289 -0.73636454
on -0.76053756 -0.065007284 -1.69509 1.017384 -0.9609898 -0.1765614 0.40335676 -0.79609084 -0.75190485 -0.25786927 -0.6104577 -0.8907878 0.25749168 -0.42648664 -0.2245099 -0.72852695 -0.99820215 -0.16359569 -0.28998312 1.0873966 0.45808473 -0.34483728 0.662334 0.5208466 -0.094244935 0.29508367 0.4273865 1.1301892 0.24235618 -0.107658625 0.9625321 -0.2729195 0.5828863 0.4696004 0.6484659 -0.784273 1.0614707 0.64701205 -0.5065923 -0.26664066 -0.23573658 -0.2617632 0.23749213 -0.38669348 0.8919804 0.26465076 0.7585219 0.18317455 0.58934456 0.5302952 0.39987513 -0.45346022 0.8344459 -0.5062113 0.3216465 0.14240128 0.73264045 0.030499427 0.93504375 -0.097650245 -1.018942 -0.580523 -0.29489404 -1.0634222 -0.40615577 -0.027671393 0.024123032 0.29577866 -1.0833082 0.69913554 0.29735428 -0.66395634 -0.13986516 -0.3311157 0.75628716 -1.0617217 -0.7685147 -0.4343051 -0.26500875 0.444435 0.8290221 -0.2732097 -0.46388468 0.16663742 0.20081061 -0.433645 0.06697161 -0.518048 0.13082696 -0.474458 -0.465015 -1.5565406 -0.3100906 0.5074111 -0.015180605 -0.29816842 -0.055352677 -0.59028804 0.5721007 -0.4535849
all 0.25346413 -0.5658376 -0.15779462 0.1499441 0.13712882 -0.16694406 -0.30677667 0.7849531 -0.11165595 -0.5976436 -0.6191024 -0.4732255 -0.19715704 0.049942337 -0.04094938 -0.34608182 0.5553651 0.36717725 -0.24060433 -1.0095353 -0.22057158 -0.06789894 -0.1018482 0.25829554 0.5251393 0.023012612 -0.74689317 -0.6872077 -0.73934346 0.2752647 -0.8342287 -0.52111876 0.37822384 0.35452756 -0.72645026 -0.1065809 -0.024260003 0.5156923 0.41374993 -0.45381203 -0.07692589 -0.2366166 0.35874906 0.3444478 0.11352818 -0.061073128 0.069280334 0.5448026 -0.38102028 -0.16033499 0.37555265 -0.44778854 1.1723367 0.015451848 -0.15714833 0.035042062 0.42164192 0.49274388 0.43979424 -0.042824563 -0.15118128 0.1940551 0.29625124 -0.7984415 0.2948096 -0.32321835 -0.42647034 -0.30503643 -0.47030765 -0.11488041 0.27798092 -1.2797168 0.683159 0.47101086 -0.077907264 -0.5469961 0.5283474 0.5420004 0.18650627 0.8074227 0.5406728 0.5239053 0.28189522 -0.40283942 0.99962026 0.48130202 -0.3606759 0.28041843 -0.31469783 -0.47707784 -0.0709457 0.35058028 -0.1176348 0.19527104 -0.0065430263 -0.024691226 0.23894028 0.11720187 0.19480664 0.9617887
this -0.4232314 -0.61568916 -0.42039198 0.04637123 -0.22137679 0.014985183 0.44117796 0.100727886 0.13950494 0.51916075 -0.09433572 0.4644224 0.07617974 0.009943122 -0.04764156 -0.48525026 0.6571869 -0.80171496 0.41525424 -0.16665381 -0.02167538 -0.16059655 -0.013853571 -0.34611952 -0.19508319 0.7478476 -0.5536956 -0.21053064 0.2937335 -0.27975783 -0.08187066 0.22571677 -0.05950867 0.13134295 -0.12096745 1.1137635 -0.20194411 -0.7407703 -0.010635969 -0.3232916 -0.74513024 -0.109713696 0.66569495 -0.95089966 -0.6855129 -0.34935576 -0.834013 0.52306217 0.35534218 -0.0025177 0.5881936 0.38929078 0.6494326 0.42854264 -0.42340368 -0.9742639 -0.69123113 0.042702813 -0.002868418 0.26121888 0.04418896 0.6163793 0.43131843 -0.95777214 0.26320294 -0.19280697 -0.7524689 0.26041457 0.4168651 0.17885327 0.2662 -0.4616726 0.54424113 -0.46940306 -0.41942874 0.33955893 0.112371564 0.019409753 -0.11735223 0.58951294 -1.0303357 0.7393798 -0.68383175 0.075240955 -0.36835468 -0.33776104 -0.3435287 -0.16584224 -0.6491231 -0.03531309 -0.538826 0.95441425 0.592684 -0.50197524 -0.45428762 -0.30689612 0.3596909 -0.27972206 -0.8044665 -0.3655846
had 0.54423064 -0.6165351 0.23462167 0.27361104 -0.16851087 0.13524424 -0.23159887 -0.7618984 -0.15266997 0.23560466 0.3643409 -0.7133451 -0.19705932 0.43033823 0.35027525 0.1513623 -0.5661757 0.965255 -0.15511227 0.14002647 0.2226033 0.35926393 -0.47145137 -0.7978054 0.7248725 -0.19847468 -0.3199772 0.12750065 -0.023652516 -0.78046256 0.17886987 0.2927371 0.6785729 1.4091196 -0.16908473 0.068412095 -0.04294493 0.42736202 0.20625208 -0.74540216 0.50071234 -0.36521226 0.6767839 -0.8093591 -1.0511353 -0.22568989 -0.048083585 -0.29591504 0.7301325 0.6537648 -0.69600177 0.5556831 -0.04588685 -0.3190608 0.16070896 -0.99556077 0.9893 -0.21796493 0.12981243 0.15817638 -0.3355375 0.039583083 -0.010408987 0.44726884 0.6632683 0.6981167 -0.17925626 0.11983793 0.6120859 0.45040476 0.22714502 -0.4149416 -0.2401508 -0.16159335 -0.4103138 0.8119947 -0.5423437 -0.3485004 -0.57380503 -0.026218843 0.04144691 0.6359166 -0.47969544 0.12328524 -0.19634461 -0.7690191 0.013776479 -0.006289299 -0.48567882 0.43922505 1.1060119 -0.49081975 1.0815963 -0.5187283 0.3868279 -0.66740036 0.5076676 0.18076691 0.27098578 -0.3898891
for 0.30183485 -0.18725382 -0.6246575 0.625518 -0.49646392 0.20233761 0.09619605 0.8052317 0.036399968 0.66609037 0.3037873 0.41070518 0.29431108 -0.26582363 -0.5168767 0.13508952 -0.49407083 0.047344647 0.75641894 -0.24110147 1.008314 -0.023846753 -0.14576308 -0.05719285 -1.0777898 0.29849058 0.40784335 -0.033777278 0.57913554 0.618532 -0.017312996 0.66832054 0.046116598 0.6118555 0.5203487 0.6918687 -0.78175014 0.1770459 -0.19054651 -0.21902935 -0.104930915 0.5023208 -0.05074748 -0.9211244 0.24663474 0.10458658 -0.7950964 -0.21563911 0.156746 -0.03461376 0.40286452 0.1557676 0.3379632 0.44591913 0.5055066 0.13865566 0.6273412 -0.713109 -0.29543924 -0.18672147 -0.16202553 -0.53267056 -0.011212532 -0.14092927 0.005064536 -0.20075911 -0.7054557 -0.055872705 0.25501147 -0.15379575 0.61344016 0.116425745 -0.14996205 -0.10919032 0.19507523 -0.2304968 0.109751515 -0.3458024 0.5377637 -0.024726868 -0.09128058 0.027566107 -1.1234223 0.37546888 -0.11972554 0.195272 0.35783124 -0.80683064 0.049605504 -0.54286194 0.33605325 0.0050612697 -0.026267303 -0.1353342 -0.4206086 -0.00077111693 -0.44776955 0.08560106 -0.56336474 -0.16678847
be -0.34430888 -0.3710754 0.28806755 1.0548623 -0.070376724 -0.22386742 1.2057463 0.28370708 0.64015627 0.12605572 -0.2919733 1.0886835 -0.9852276 0.69409424 -0.044386774 -0.0019197154 -1.2149941 0.7444392 0.15588318 -0.9263696 -0.17507161 -0.75001895 0.93005854 0.20902593 -1.1456761 0.70793533 -0.5197872 -0.43255663 0.5949884 -0.46818042 0.503938 -1.1081958 -0.043248795 0.12048269 0.7680156 0.21523635 0.026327573 0.09623685 0.24354984 -0.67005444 -0.8683264 -0.5143308 0.6489187 0.5862548 -0.7354161 -0.120432556 0.49819413 1.2196809 -0.5160885 1.0661477 0.63954276 0.36600357 0.11881842 -0.3526623 -0.787745 -0.20276013 -0.2537891 0.042469844 0.45185804 0.59452075 0.39531824 0.911067 -0.7216593 -0.10495104 0.05092495 -0.38329878 0.09860737 -0.19953176 -0.6721033 -0.18626288 -0.47419325 -0.75060236 0.277379 -0.9497629 -0.12752178 0.27987117 -0.6933507 -0.69237596 -1.020815 -0.17585133 -0.65765905 -0.35974988 0.9439305 0.7686089 -0.24776037 -0.3124325 -0.7120868 -0.08935594 -0.32700303 0.44940847 0.36459213 0.8149732 -0.37400272 -0.38745746 0.48975334 0.39473528 0.59085476 0.45478597 0.5875063 0.44502074
not -0.124879435 0.58929366 -0.0200723 -0.757579 -0.7338142 0.09747961 0.49492666 0.48544797 0.004948891 -0.063156344 -0.45709133 -0.47040936 -0.15093085 0.14162126 -0.46362516 -0.47956938 -0.32563952 1.4358779 0.2271836 0.60386914 -0.3206249 0.16586323 0.16316676 0.72659016 0.5222249 0.79966515 -1.2012141 -0.17493545 0.03109264 -0.15211183 0.7013607 -1.4041976 -0.58700925 0.69642824 -0.59311694 -0.14953594 -0.33980387 -0.8649806 0.11544495 -0.8832283 -0.44300237 -0.108380884 -0.42944777 -0.5114119 0.26848313 0.67485356 -0.5436696 0.06362937 -0.91831523 1.1496613 -0.76265126 -0.36452618 -0.28341794 0.25951192 -0.6583928 -0.14707421 1.2735621 -1.0323889 0.3342712 0.5222346 0.01735811 0.39602405 0.2868444 0.72659814 0.66061807 1.1194725 -0.32981777 -0.45216227 0.44808844 0.15485863 -0.78116727 -0.42658064 -0.6389336 0.21570298 0.22551148 0.62744737 -0.2027009 -0.0923044 -0.06289435 -0.9816996 -0.9811602 0.22035724 0.91732824 -0.2640495 -0.65803844 -0.2544031 -0.32626483 -0.5225326 0.00915827 0.09133589 0.51398796 0.9115693 -0.78497255 0.6016071 0.52489895 -0.5361952 0.47095942 0.27013034 0.06154963 0.78879976
or 1.1176202 0.3770283 -0.04006483 0.047806866 -0.8878595 0.59569705 1.2824836 0.57557267 -0.25176454 1.2020216 -1.2870992 -0.60793597 0.3000903 -0.14308923 1.277925 -0.8877247 0.3932539 -0.65009415 0.114760846 0.34728894 0.5462946 0.766901 0.20846203 0.03301567 0.08101069 -0.5060469 0.30094388 -0.8778042 0.36569428 0.5486578 -0.37206906 0.5529721 0.2481769 0.1422506 0.6777886 0.26657236 0.12079698 -0.8687582 0.28509974 -0.51473624 -0.6057921 -0.7244642 0.6414256 -0.8453502 0.028703827 -0.4456803 -1.1168059 -0.41815183 0.29743686 0.7233979 -0.904336 1.0210906 0.4455183 0.8979529 -1.1218606 0.87321156 0.0675194 -0.6006957 -0.77734256 1.1204382 -0.37499228 -1.0042366 -0.28861687 0.03813219 -0.45161143 0.021772895 -0.0072902846 -1.156727 0.40097314 0.098474674 0.72368187 1.2466131 0.3505635 -0.13196868 0.0025359008 -0.330105 0.017570086 -0.1057929 0.46742702 -0.32814828 0.83210105 0.35155126 0.9200942 -0.39908102 0.11259189 -0.7975418 -0.57129496 0.25224364 0.5956221 -0.5313925 -0.4076065 1.274699 0.3574992 1.2324021 -0.5935268 0.21908627 -0.57064813 -1.0088632 0.3103818 0.19327696
so 0.030691378 -0.016291438 -0.863542 0.1781249 -0.41219047 0.07569404 -0.6067338 0.2573929 -0.2782027 -0.28156537 -0.08541592 0.31446728 0.7912145 0.08640774 0.18378578 -0.5960812 0.34403503 0.22880802 -0.123134255 0.8988145 -0.7504317 -0.48378354 -0.03886057 -0.38661456 0.38421184 0.07609422 -0.44813612 0.9244306 0.11797281 -0.9253134 -0.12544313 0.18252504 0.0017566067 0.59907395 0.12637478 -0.35658705 -0.022082187 0.5887385 -0.3570037 -0.3873366 0.12528923 0.23486577 0.4482737 -0.06487495 0.3931823 0.25867742 -0.046515267 -0.7489862 0.028510774 0.10921409 0.69371647 0.64086777 0.0018084872 -0.24109833 -0.73731697 -0.8892163 0.39397028 0.5021006 0.71336925 -0.42637026 -0.21095298 -1.046983 -0.18146196 -0.72034043 -0.2334956 0.23376887 -0.048831638 -0.16105025 0.6203536 -0.33163202 -0.13580558 0.35455805 -0.52005273 -0.6011225 -0.024257947 -0.16487353 -0.18258707 -0.2804913 0.60409564 -0.65518814 -0.07883829 -0.86992884 -0.74364656 0.39652315 0.12521443 0.12679583 -0.25950626 0.23988043 -0.16726752 0.40639576 -0.49414295 0.38707346 0.45912677 0.52043265 0.24190983 -0.79427695 0.2842078 0.33415937 0.31457025 -0.026349444
very 0.6787997 -0.38254544 -0.51308566 0.5416741 -0.044491023 0.08198752 0.09048521 0.8299377 -0.47926643 -0.021722581 -0.73442996 -0.36820716 0.32740295 0.237724 0.21568853 -0.20192158 0.27030027 -0.04183389 -0.7143833 0.13602838 -0.6074167 -0.6418767 -0.54311734 0.107629046 -0.2031358 -0.21948974 0.3321468 0.34036943 0.34220633 -0.07908592 -0.47932228 0.019997323 -0.84567153 0.1605573 -0.21025027 -0.14949958 -0.6082075 -0.69316596 -0.22072388 -0.27902555 -0.59376246 0.24056646 0.101906344 -0.117143884 -0.03950568 0.056241993 0.36507604 -0.5629745 -0.54516906 0.4083256 0.25710344 0.13513564 -0.24891484 0.040929016 -0.62588596 -0.9077141 -0.21582583 0.2708354 0.32531714 -0.27956602 -0.27650356 -0.35658395 0.011405095 -0.25858712 0.3143621 0.44463265 0.4386176 0.547049 0.6807421 0.16844419 0.7206051 -0.28934088 -0.19134405 0.1546924 -0.74917567 0.32701564 0.9007665 -0.09538761 -0.25237268 -0.16815506 0.27728647 -0.65790707 -0.6518312 0.55036867 -0.48166627 0.21908076 -0.26463586 -0.05650106 -0.58014184 0.9336645 -0.19039695 0.43330193 0.53766763 0.17612264 0.6589185 -0.056818273 -0.12881893 -0.14563222 -0.19784096 -0.17145585
but 0.7252405 -0.100082666 -0.055388115 0.1143418 -0.7387369 -0.062545314 0.08641525 -0.3961181 0.76486814 0.15004218 -0.1401269 0.025107084 0.16900352 -0.15055147 -0.04606615 -0.0099137565 0.25358388 0.5461063 0.13922977 0.1980868 -0.27513295 0.0027647913 -0.20752157 0.02442053 -0.2213886 -0.5490824 -0.29990914 0.13569519 -0.029972892 -0.5671612 -0.057974838 0.061278407 0.26010767 0.21271382 0.3693114 -0.43443796 0.4893405 -0.110488676 -0.21447316 -0.46793428 -0.074183665 -0.025643744 0.54293823 -0.056278348 -0.2937767 0.16779965 -0.12226587 -0.18703611 -0.029307794 -0.082929954 0.15903786 -0.2035517 -0.27376127 0.13710918 -0.48900428 -0.42042702 0.12141783 -0.04151542 -0.15161136 -0.14824921 0.22334726 0.72206545 -0.12744412 -0.42426565 -0.12599126 0.5243109 -0.26408225 -0.25870672 0.054777134 -0.19264369 -0.2533559 0.44219378 0.49323475 -0.13481814 -0.75546914 -0.6305207 -0.87537295 0.2818501 0.5387379 0.0060296375 -0.1626835 -0.79151654 0.034918334 0.5884681 0.9181627 0.19216357 -0.798584 0.14314029 -0.77089715 -0.26607355 0.3471281 -0.11659327 0.38034764 0.074378006 -0.43680853 -0.67511225 -0.09567664 -0.15965599 0.1371282 0.33384278
is 0.28316313 -0.86072 0.24496956 0.26730877 1.1144499 -0.7427832 0.3745803 -0.48040068 -0.2908225 -0.22233787 0.48811233 -0.17001446 0.13365974 0.64109415 -0.36122197 0.33381578 -0.26117653 0.12347807 0.25719178 -0.70537555 0.25729087 0.47806734 -0.15455265 -0.35788754 -0.08380577 -0.3473138 0.04510514 -0.5031304 0.9416896 -0.15393144 -0.29878512 0.13287663 -0.072827764 0.25270855 -0.16412185 -0.02728935 0.36440793 0.28262305 0.09300786 0.56479657 0.70701516 1.1244373 0.19703734 -0.0921954 -0.055714406 0.087553896 -0.24272905 -0.23796248 -0.18671176 0.2548021 0.38924137 0.37496397 0.78585136 0.21084054 -0.08718624 0.8616492 0.41429725 -0.83720934 0.12874238 -0.30814484 0.23394597 0.5911486 0.17555311 0.010921534 -0.17630146 -0.4982012 -0.09243554 0.018241 -0.74024767 0.63388675 -0.12723684 -0.07994932 -0.44940302 0.14497411 0.89353925 -0.236887 0.13012758 -0.19820493 0.66921717 -0.4129619 -0.6783385 -0.07881103 -0.33986717 -0.43020788 -0.49059227 -0.38507548 0.56575084 -1.1384201 0.0066077267 -0.15609506 1.2519115 0.97753054 0.98459023 0.45036256 0.07180331 0.62538165 0.13189623 0.111256264 0.24565512 0.12969258
little 0.53385836 -0.37898797 0.4097512 -0.8158984 -0.42026216 0.7852583 -0.6397524 0.22818054 -0.9196689 -0.76423174 -0.6373033 0.01232159 0.35250187 -0.018754357 0.02944294 -0.33855093 -0.5061482 -0.043737117 0.43908575 -0.79297024 0.883613 0.6251059 -0.26516366 0.117937885 0.5302648 0.5743109 0.09643582 -0.7902227 -0.6350957 0.43520102 0.40975115 0.60883147 0.17029157 1.0988677 -0.03119837 0.11938908 0.944599 -0.44456252 -0.07991516 0.72333986 0.9558452 -0.12480246 0.43281308 -0.37212992 -0.19459018 -0.38398886 0.4781749 -0.18523712 -0.50965446 -0.015845507 -0.70198804 0.358872 0.13875191 0.7353128 0.7767034 0.48189867 0.6251198 0.058125332 -0.06381861 -0.15168428 0.026931705 -0.46486336 0.27528042 -0.47275293 -0.57543147 0.06717886 0.20575511 0.6173321 0.091413334 0.6746584 0.8107576 -0.63771975 0.68559235 0.17370845 -0.36465496 0.1928697 0.5238565 -0.511587 -0.44615933 0.7315925 0.78869474 -0.49789354 0.009505928 0.3502561 -0.3322865 0.30986786 0.86625665 -0.9323167 -0.65092856 0.18402761 -0.19575289 -0.12395951 -0.24485816 0.74921024 -0.13277765 0.3721032 -0.753814 -0.19350447 -0.13692984 0.068524465
‘i -0.23706445 -0.6342854 0.61501944 0.53092384 0.18755364 0.58533627 0.6064569 -0.17833303 0.37983683 -0.23176904 -0.16369425 0.83583224 0.03773608 0.11476864 0.0018291469 -0.21137884 0.10663467 0.77210575 0.6343749 0.37226442 -0.4795826 -0.107787356 1.0149139 0.41630572 -0.90673935 0.4597897 -0.6845673 1.1748521 -0.60249454 -0.204706 1.7918626 0.41112694 -0.11379436 0.7641632 -0.5280536 0.3706665 -0.436326 -0.5024996 -0.5757708 0.09623768 0.39391676 0.2788259 -0.32427204 1.1915329 -0.18289289 -0.37886694 0.21808739 -0.5560958 -0.93087286 0.21263552 0.3354591 0.009919489 -0.2543168 -0.107801095 -0.31740025 -0.037329722 0.058468692 -0.12879644 1.0523394 -0.16900794 -0.38525543 -0.50609565 -0.07526343 0.2159437 1.3441769 0.66592103 0.54685146 0.7456938 -0.10051805 -0.60962236 -0.09479067 -0.5701458 -0.6512804 0.39357987 -0.98144853 -0.8084289 -0.8215966 -0.8333238 -0.53968817 0.44498584 0.815015 -0.583272 0.80073327 -0.40690798 -0.64690006 -0.43611056 -1.4111421 1.0160326 -0.38410327 -0.3678037 -0.20835795 0.9476624 -0.2613869 -0.9650845 -0.049382634 0.68123287 0.81927425 -0.03953085 -0.39733234 0.60656047
they -0.90373236 0.22066222 -0.20368102 -0.32755336 -0.0366577 0.8465078 0.3162369 0.9253513 -0.34850332 0.19751266 -0.18319716 -0.4186723 0.4193959 -0.85870165 0.96926975 -0.7849881 0.22117439 0.40126795 -0.3646013 0.49055052 0.16448662 -0.27008182 1.0765554 0.111323334 0.4680006 0.60677725 -0.45552954 -0.09226015 -0.16502753 -0.33410758 0.054211788 0.6657767 -0.44439498 -0.5164749 -0.41035917 0.6560417 0.48274827 -0.12533426 0.30896953 -0.5958572 0.28426343 0.06485561 0.20099038 -0.34997797 0.43808162 -0.115130864 -0.08391139 0.44108117 -0.45313716 0.3612153 -0.23056622 -0.2978704 -0.048780892 0.07209056 -0.33696577 -0.42257053 0.5896812 0.35757813 1.5703987 -0.07918097 0.4564129 -0.23395342 0.4971811 0.14646192 1.0232979 0.06011116 -0.116510004 -0.6037967 -0.196743 -0.556143 -0.34516546 -0.7853997 -0.29084823 0.6376716 -1.02765 -0.061760996 -0.42754674 -0.17793989 -0.6570358 0.49759653 -0.0011331731 -0.42692533 0.90450484 0.23470938 0.064532675 -0.25117606 -0.8531393 0.8247529 0.3940917 -0.66120905 0.3268899 -0.2403219 -0.6225399 -0.25312847 -0.016222939 -0.1729592 -0.34004408 0.68828833 -0.023193799 0.41937128
out -0.0721643 -0.65467316 0.056622148 -0.13206029 0.42482582 -0.39886248 -0.2730915 -0.0068396227 0.22334047 0.36080995 -0.06567492 0.73406965 1.0065355 -0.26856077 -0.34958556 -0.16268523 0.7000165 -0.63005024 -0.09472175 0.15300637 0.42648834 0.080527954 -0.004951519 0.08493637 0.6804733 0.77088624 -0.26654074 0.26362556 0.061796665 0.4458248 -0.022499852 -0.42211464 0.56002015 0.19785714 0.15237689 0.00522966 -0.26342884 0.42575532 -0.5211216 -0.003381506 0.42007118 -0.14591748 0.67758304 -0.57629913 -0.12196647 0.011376102 0.2588474 -0.46270707 0.20017861 0.39905208 -0.30619815 0.4307833 -0.26684794 -0.15750442 0.22922838 -0.8089593 0.44982252 0.9020812 0.35881284 -0.00472988 0.627929 -0.34783694 -0.0061940057 -0.5030372 0.42916992 0.08479639 0.2238609 0.44351837 -0.4058562 0.069224656 -0.22075944 0.2987352 0.3029511 0.08115426 0.031992286 -0.30678225 -0.32490984 0.34704685 -0.6746466 -0.10756185 -0.19046862 -0.32250607 -0.07556517 -0.05176972 -0.2557733 0.58029515 -0.32685298 -0.48433012 -0.5419593 -0.13447247 0.37018067 -0.14297529 0.55996144 0.1665707 -0.2192999 0.020381322 -0.059141576 -0.12765712 -0.4400662 -0.15438269
he 0.13774218 -0.3848256 -0.2236362 -0.0152817005 0.024311142 -0.0463058 0.08007807 0.9106792 -0.24485542 -0.107499 -0.15492088 0.024483396 0.33953965 0.085301414 0.13795578 -0.10431045 -0.21846975 0.102195226 0.30454 0.5625131 -0.00573512 -0.35785455 0.2328016 0.7331497 -0.06781999 -0.5081142 0.16380219 0.12600733 -1.004762 -0.2028179 0.7027799 0.37151396 0.15856338 -0.7121824 -0.83576775 0.7084535 0.77872527 0.02484116 0.5110922 0.33791035 0.4250658 0.10333815 0.8129098 0.30210608 0.47816566 -0.3940723 0.62695634 0.7008752 -0.15176728 0.09980136 0.07457997 -0.49691126 -0.042173356 -0.52536875 0.3193482 -0.58680874 0.24498938 -0.3322421 0.38850546 0.4164464 0.27590758 0.25610837 0.08167633 0.20885848 1.1094874 -0.07919702 -0.1908651 -0.44003466 0.017971724 -0.8975679 -0.10259723 0.13038865 -3.714231e-05 0.04854178 0.3071741 -0.076469295 -0.3296041 0.0084026195 0.08456946 -0.7078801 0.20290953 -0.30398253 0.65111524 -0.35994506 -0.050919488 0.21131596 -0.5042542 0.5204177 0.57271546 -0.21748534 -0.042338323 -0.10407601 -0.3236471 -0.8395206 -0.03806845 0.65532106 0.5304909 -0.07666389 -0.044837296 0.072930954
down -0.023721524 -0.262617 -0.7981131 -0.5727411 -0.50375694 -0.06769876 -0.076300345 -0.27983966 -0.46483308 0.08241174 -0.06644546 -0.8989732 0.049845863 -0.36984152 0.5292451 -0.15264142 0.47944573 -0.25069377 -0.0969633 0.48674154 -0.022241171 -0.110723056 0.6923331 0.063231714 0.3732563 0.6310101 -0.24976644 0.40179008 0.12651503 -0.30984896 0.25120556 -0.115637444 -0.045525532 0.11025922 -0.34518567 -0.5062492 0.2395095 0.5867585 0.4344394 0.008513081 0.5616177 0.056480326 0.76357114 0.10105421 -0.28208995 0.013056605 -0.67319643 0.31059286 -0.047950465 0.13808341 0.757115 -0.5620078 0.03975564 0.27653968 -0.055937998 -0.70494974 1.1818551 0.15154223 0.11816303 0.10271769 -0.04769536 0.133157 -0.8583205 -0.32449934 -0.14966565 0.46358684 -0.26268902 0.0872272 0.18524924 -0.34299725 -0.47445986 -0.17271219 0.1482784 -0.3355112 -0.6435628 0.11593868 -0.20101894 -0.0079646995 0.79652727 0.7046318 0.06648097 -0.48360676 0.34856373 0.35931557 0.34391284 0.23784432 -0.29365084 -0.19595675 0.14269459 -0.58067334 0.41323474 -0.8268255 0.04545052 -0.030174563 0.012595955 -0.79764897 -0.7054919 0.24925019 0.07557836 -0.17114414
about -0.12706672 -0.103102386 -0.28059882 0.4755966 -0.29736927 -0.5533316 0.26277626 0.1865664 0.42318374 -0.42122862 -0.68936056 -0.030444238 0.5047782 -0.1782081 0.33340275 0.495323 -0.5218866 0.37254354 0.015058873 0.1801401 -0.0006779058 -0.68970776 -0.0023275458 -0.26378953 -0.28516358 -0.4777116 0.05648255 0.3794963 -0.21230741 0.06696816 0.39068666 0.1418079 -0.35415587 -0.09983954 -0.36418015 0.2199316 -0.14449081 -0.4430353 0.276801 -0.029808512 0.015633034 -0.1794144 0.25957653 -0.021203244 0.63737637 0.51421905 -0.09239251 0.06742179 -0.01770243 0.0681081 0.42713204 -0.17281635 0.19669856 0.4015262 0.14875755 -0.19066021 0.019014882 -0.48039812 -0.08350591 0.3652303 0.121342234 -0.13307072 0.40813944 0.13084434 -0.36880445 0.23334898 -0.12669536 -0.09467118 0.21810542 -0.33270028 0.50383496 -0.23484282 0.4396372 0.07322548 0.2921459 -0.37691972 0.26354873 -0.48519912 0.64543897 -0.9347026 0.7830133 -0.12157272 0.049558286 0.44854125 0.09600293 0.5658004 -0.33563754 0.11322024 0.7349486 0.122467846 0.37712872 -0.20791486 0.40047956 0.48667023 -0.3409257 -0.15017131 -0.59890676 0.040773086 0.29717445 -0.3869127
up -0.8542665 0.10501464 -0.46908993 -0.76044405 -0.6796641 -0.995959 0.10119969 -0.25573754 -0.076213315 -0.08235192 0.27964175 -0.49729013 0.38799617 -0.1473306 -0.24900514 -0.14730829 -0.5792199 -0.39807263 -0.079440214 0.6019314 -0.46597922 -0.38448617 0.05921898 -0.04048352 0.2665796 0.52787006 0.015184687 -0.019203484 -0.21052238 -0.07257452 0.37689123 0.33410504 0.43718773 0.83915937 -0.24852045 0.16291675 0.3277245 0.51322484 0.02301254 -0.04140628 0.27426228 -0.37233314 0.60885584 -0.08681585 -0.1321551 -0.42048022 -0.32613245 -0.5040282 0.14635791 0.27408084 0.3331874 -0.073575035 -0.68739396 -0.12570702 0.21652561 0.028931048 0.4830285 0.46281344 -0.20240586 0.28174487 -0.13858742 -0.0021670628 -0.5870173 -0.36240828 0.44036025 0.39045322 0.31492987 0.1902111 -0.17803289 -0.10902132 0.07838089 -0.41122973 -0.07081327 0.091514215 -0.3672924 0.60983664 -0.0397886 0.19263175 0.06588758 -0.14396818 -0.12026829 -0.37118256 -0.5874136 0.072650425 -0.33043054 -0.029736627 -0.557111 -0.41479638 -0.25636524 -0.2897375 0.5288457 -0.6210175 -0.23790884 -0.298009 -0.03276964 -0.3076283 -0.8953466 -0.488077 0.33047953 -0.07514392
one 0.3538404 -0.8092809 -0.49679416 -0.18405576 -0.2696686 0.85201186 0.0033561965 0.18673094 -0.37277064 0.5173363 -0.46244153 0.48149556 0.00766964 -0.014142157 0.20888615 -0.080948204 0.75298834 -0.050614454 0.19603245 -0.4196254 0.13797452 0.1316819 0.6207701 0.2733012 0.5784282 0.13846578 -0.21773121 -0.4144034 -0.15675709 0.1974631 0.2982322 -0.40485463 0.31254265 -0.23923098 0.13292034 0.097625785 0.07728305 0.4535484 -0.39259258 0.057428434 -0.11433117 0.14293507 0.90487164 -0.15146317 -0.0539919 -0.68954545 0.56336695 -0.48097357 -0.22622152 0.1064085 -0.27939177 -0.07027225 0.2597988 -0.04947895 0.06427134 -0.6479125 0.4771363 0.68470997 0.21777293 0.21245259 0.22237523 -0.19266881 -0.7186744 0.11623425 -0.055216372 -0.23169094 0.08840917 0.11381047 0.6593381 0.30726013 -0.5821692 0.6529533 -0.028366147 -0.1466634 -1.0236006 0.19079055 -0.40346092 0.02230775 -0.4438266 0.78090084 0.18409199 -0.0887458 0.34241414 -0.13984227 -0.10613769 -0.7556228 -0.36204833 -0.23268995 -0.67666435 -0.45511195 -0.118977 0.24896765 -0.1284551 0.3409566 0.38130873 0.2909784 0.74368525 -0.32111013 0.11097503 0.12580222
what -0.5004424 -0.15477653 0.743973 -0.026363833 0.334529 0.20154 0.5133589 -0.06895527 0.4258123 -0.2065086 0.39865518 0.50463504 -0.12569712 0.42453858 0.07009923 -0.15841487 0.58114976 0.3709563 -0.37493578 -1.0800036 -0.12790498 0.21526831 -0.07464013 0.14631519 -0.08305347 -0.35235733 0.5866124 0.55499566 -0.1866062 0.2254355 0.85019714 -0.24156152 -0.3611935 0.037594303 -0.16998929 0.18128802 -0.043056842 0.28067273 -0.11507543 -0.5876923 0.12511604 0.45620403 -0.28372946 0.05764663 -0.16194385 0.5796554 -0.5888177 -0.6164316 -0.80064785 0.40088123 0.2660779 -0.18948683 0.017024111 -0.4842271 -0.94641536 -0.12635379 0.16710855 0.18448977 0.4032985 -0.1593954 0.7071798 0.13331692 0.8495451 0.58229554 -0.30524722 -0.44740084 0.35208362 0.0805689 0.027690519 -0.010795444 -0.611367 -0.38922092 -0.24012674 0.16733572 -0.2701045 -0.73627454 -0.51559436 0.08892853 -0.21775025 2.9051538e-05 -0.28735745 0.34362322 0.021305175 -0.35000297 -0.31971738 -0.08921194 -0.16183566 -0.21569432 0.45623884 0.03406997 -0.26150206 0.40775445 0.39403686 -0.08736793 0.089136764 -0.094971634 0.5303093 0.39465803 0.41218394 0.7754894
if 0.20935392 -0.49534985 0.32570037 0.8170235 -0.14916843 1.1182173 0.13592245 0.6711835 0.99411035 0.7550462 -0.22288725 0.2155556 -0.3054353 0.7573542 -0.07097803 0.35518 0.22159168 -0.19966653 -0.03884097 0.40061274 -0.010709081 0.46243274 -0.25003546 -0.1639522 -0.36429954 -0.28395027 0.26573098 0.5758824 -0.09600746 -0.74311244 0.31386086 0.42127043 -0.18588279 0.58260876 -0.048481524 -0.10970746 0.355962 0.1619339 0.38004762 -0.83743435 -0.22472678 0.18125364 0.36390862 -0.04394325 -0.06918876 1.0523987 0.057924524 -0.2891642 0.040602207 0.38085207 0.0010732404 -0.22990757 0.4296152 0.6921671 -0.10300335 -0.2800784 0.32674515 -0.26868618 0.39735773 0.8001796 0.6577309 0.037246335 0.41555882 0.14543921 0.46865243 -0.42908093 -0.08698069 -0.37645265 0.23153718 0.07406599 0.091946006 0.14025007 -0.010635151 -0.32205003 0.6457929 -0.40323585 -1.01773 -0.5947628 0.6084019 -0.52748334 -0.33084378 0.51642483 0.25752306 -0.6469065 0.03297293 -0.49845287 0.05255905 0.113360666 0.5441334 -0.38866758 0.098628126 -0.11290891 0.79514915 0.009902905 -0.38795155 -0.22970751 -0.0475247 0.09591968 0.19091734 -0.21898755
his 0.15245531 -0.54497933 0.090592586 0.3847819 -0.77016026 0.35960498 -0.32600078 -0.9395574 -0.30832884 -0.40606618 -0.15041392 -0.8055505 0.4493139 -0.12448942 -0.16204032 0.49261257 -0.66294885 -0.98557323 0.18752588 -0.24897344 -0.79816324 -0.38703397 0.3116523 0.16977134 0.47342128 -0.052079 0.9347231 0.4614878 -0.6063326 0.8080342 0.80029935 -0.2901499 0.99844676 -1.1210605 0.35537294 0.1886547 0.15799078 0.31273153 -0.65692717 0.6202932 0.5400462 -0.02433047 0.83740985 0.6820927 -0.07232937 0.008878913 0.05155622 -0.6402 -0.13978851 0.24191613 -0.68590456 -0.32321113 -0.93814397 -0.90848833 0.59637105 -0.9585093 0.006516207 0.49073246 -0.63426244 -0.7796163 0.19567542 -0.4167717 -0.9696549 -0.5100568 0.5826752 -0.63131654 -0.88955915 -0.61982524 0.36270693 -0.4558987 -0.8734674 1.0004301 0.02165108 -0.39799225 0.4375605 0.46225926 0.124736466 0.43406194 0.42073497 0.2177709 0.49882874 -0.5027959 -0.4481753 -0.03387192 0.106940836 0.15954025 -0.50538164 -0.2570567 0.4360817 0.1471525 0.18410976 -1.2556853 0.59211904 -1.2697982 -0.28493187 -0.6828539 0.9317151 -0.3770712 -0.20614602 0.21029504
do -0.042989057 0.8021627 0.30465686 0.53394973 -0.49382257 1.0544206 0.5963845 -0.21138203 0.17119864 0.6344822 0.43838254 -0.23219924 -0.73941356 0.3294893 -0.06658801 -0.32412308 0.65516394 0.3583862 -0.6591164 -0.34144574 0.14832443 0.26675785 -0.26753262 -0.70896924 -0.490585 -0.19235487 -0.3744297 -0.07723448 0.06335567 -0.6985116 0.40396354 -0.09729147 0.01237392 0.16386369 -0.3476478 -0.12093695 -0.32504144 0.06847519 -0.4606319 -0.6127857 0.1261951 0.32954085 -0.26705146 0.046004824 -0.49767545 0.63162345 -0.36935118 0.24372448 -0.91408896 0.7156824 -0.4340196 -0.31215733 0.21272159 0.3885656 -0.22737193 0.21001041 -0.4212629 -0.21778706 -0.06774391 0.49392256 0.39677742 0.2964629 -0.05936942 0.93503624 1.2815069 0.032567155 -0.29296812 -0.06847476 0.033589426 0.6701037 -0.8988091 0.026891984 0.29778367 0.23941815 0.2634688 0.09893515 -0.114866614 -0.4970352 0.48914742 -0.17207977 -0.33898175 0.5925444 0.45018476 -0.1568834 0.09786509 -0.63448286 -0.22306666 -0.21796216 0.47315526 -0.17845477 0.34615666 1.0632246 -0.045817353 0.050262094 -0.052997068 -0.123707935 1.044422 0.4716011 0.3572861 0.057506826
them -0.33315858 -0.5276651 -0.6130714 -0.05221678 -0.24790712 0.49354318 -0.2508326 0.26414612 -0.3357826 0.43675327 -0.36947975 0.32888797 0.092272535 -0.16405162 0.39035422 -0.33603615 0.41698232 -0.56804866 0.05067527 -0.4526476 -0.4914111 -0.36464524 -0.14960453 -0.5805886 0.5673659 0.31028733 -0.66763306 0.20460418 -0.13402912 0.61612904 0.45312658 0.0073234253 -0.3809466 -0.3991552 -0.49459448 0.056754373 0.16438591 0.35469437 0.6863466 -0.13130319 0.04348729 0.037988592 0.8272845 -0.019335557 0.07458198 -0.4988517 0.38590828 0.13529037 -0.4294347 0.28803295 0.0038396004 0.64399344 -0.34385243 0.21395086 -0.4537818 -0.22009417 -0.027264385 0.27963975 0.052934878 0.5383009 0.0194272 0.15176769 -0.24066934 -0.51258445 0.36734694 -0.44485217 0.23005374 -0.17908564 0.333637 -0.16760007 -0.59377354 -0.032125175 0.27862683 -0.09679723 0.16336155 0.526717 0.042837106 0.26611286 0.76859856 -0.069191016 0.06390091 0.3339803 0.72604144 0.53262126 0.42682442 0.15221405 -0.7071094 0.0019433409 0.3563122 -0.6797568 0.34610036 0.16794296 0.34019613 -0.39036822 0.17153078 -0.17837787 -0.037537497 0.144279 -0.047940467 -0.22767532
no 0.019953253 0.24464495 0.36732396 -0.047502548 0.02008635 -1.1830493 0.50977147 -0.003544429 0.3564992 0.28903764 0.25229236 0.514638 0.28042576 0.34856427 1.0567275 -0.21195199 0.61150426 0.69980824 -0.42520952 -1.0084478 -0.22075368 -0.86748964 0.36827615 -0.1852124 -0.27090967 -0.8242387 0.12910315 -0.106263146 0.37970427 0.8641988 1.0409927 0.30367327 -0.02139509 0.2868918 0.23686089 -0.061399784 -0.6750215 -0.2645604 0.55088484 -0.48687032 -0.54529357 0.35245466 0.22034581 0.10212159 -0.5627593 0.25220197 -0.26014885 -0.15075175 -0.7927956 0.18377422 -0.11514956 0.703746 -0.05278572 -0.7360709 -0.41490093 -0.20637067 -0.31109038 -0.8771463 0.049125824 0.7281385 -0.09483758 0.29103336 0.5341456 -0.3221311 0.009652489 -0.88581824 -0.13786751 -0.15842725 -0.17819545 -0.043133505 0.5275851 -0.22855213 -0.2741213 -0.19492202 0.03674547 -0.4991246 0.077784404 0.07504593 -0.65699476 0.31673992 -0.56135577 -0.8182664 -0.11994448 0.4914939 -0.26469755 0.68205816 -0.3224417 0.34148294 0.09387194 0.23727462 -0.092678644 0.031447712 0.2341827 0.14227408 -0.44732994 -0.98807025 0.90955037 0.021034699 0.39526138 0.04448696
gutenberg 0.5168982 -1.4904103 0.12277535 -0.35256743 0.5347827 -0.7318927 0.013599267 0.011255136 -0.5742075 0.639744 0.7461991 -0.27981672 -0.40218937 -0.2949355 -0.5812423 -0.45033085 0.14412613 -0.36126545 1.3998202 -1.023747 0.6061617 0.2147101 1.2925099 0.18144831 -0.22487848 -0.68025506 -0.8910733 -0.72206974 -0.58655953 -0.0660524 0.17843229 -0.38677168 -1.1487247 -0.77158916 0.20046373 1.111088 1.0234693 0.20164606 0.73890203 -0.9223264 -0.71796966 1.0470878 0.80028987 -0.75675875 0.044769187 -0.98986685 0.16663723 0.4777223 0.87676656 -0.3247291 0.082715765 0.8877218 0.69297564 0.22687696 0.14492697 1.4160047 -0.512553 0.6383891 -0.22070055 0.84690523 0.14137495 -0.3493352 -0.90969366 -0.57903576 -0.8583548 -0.44601047 0.010702946 1.2158215 -0.20942488 -0.6847212 -0.8310612 0.8040039 0.79353887 -0.9077503 0.76796496 1.346856 0.37796864 0.24720447 -0.7209617 0.5725145 -0.55826855 0.99943906 -0.53439975 -1.0117297 0.70240843 -1.5284029 0.94147974 -0.96179986 0.50092196 -1.1031708 -1.2726597 -0.08616659 -0.46989805 -1.402195 1.048163 0.95067346 0.5820709 0.39407775 0.14036232 -0.21352252
like 0.10051428 0.15170936 -0.0740219 0.182502 0.18385367 0.37933967 0.29626486 -0.11842045 0.06981675 0.4025795 0.09859968 0.087642185 0.17813721 0.23370373 -0.88283634 0.56081253 0.48880842 0.4952567 0.6939621 -0.20631684 -0.07183057 0.14757359 -0.2507581 -0.043906868 -0.9545536 0.8010492 -0.08551768 0.27671415 0.37466675 -0.3847611 0.3358448 -0.9706561 -0.36343628 1.123506 0.07546009 -0.7277362 0.33322507 0.38672036 0.25213256 -0.2434147 -0.47122517 0.26068127 -0.31218398 -0.35202163 0.047120374 0.53196454 -0.2275618 -0.40953878 -0.6237818 0.20560907 0.4627995 -0.5262955 0.6209137 0.22335197 -0.3562909 0.5632892 0.5902101 -0.59772146 0.6943878 0.24608047 0.5494009 0.51029044 0.5313681 0.23915134 0.54766405 -0.049829155 0.21748845 -0.06621192 0.43189025 0.22449715 -0.021364218 -0.32454032 -0.46496552 0.6005863 0.28107262 -0.25069106 0.5125182 -0.3559666 0.2645061 0.21562694 -0.26392496 -0.046095725 0.18010037 -0.058002647 0.1077091 0.05659112 -0.2677101 0.13349652 -0.1553389 -0.581567 0.37124813 0.5845856 -0.5077691 0.4547162 -0.12606524 -0.078022055 0.113772854 0.07599479 -0.22304192 -0.053714525
were 0.20763886 -0.31281728 -0.4380216 0.14390919 -0.41464618 0.39015043 -0.3284286 -0.32541543 -0.017097546 0.35706815 0.014151554 -0.35595408 0.06324262 0.2153003 0.10229754 -0.41360307 -0.0048916168 0.5842919 -0.79003066 -0.025172306 0.542051 -0.37910295 0.22056119 0.17451505 0.052275117 0.079373024 0.115445696 -0.26550475 0.33069125 -0.51236683 -0.019339733 0.0031192894 0.3926607 0.08941713 -0.47425446 -0.45533627 -0.440618 0.20580062 0.35810325 -0.7937429 0.4266167 -0.5897481 0.004108329 -0.624254 -0.34651732 0.8324946 -0.28641877 -0.3324167 0.16803052 -0.06300335 0.21573833 -0.084519945 1.1119974 0.5638807 0.028944474 0.025873873 0.30638865 0.3731346 0.3510589 0.5217237 0.10376553 0.062343754 -0.07394719 0.5173373 -0.62307286 0.38293722 -0.27841344 -0.69551086 -0.14632222 0.04239898 0.08553383 -0.67881745 0.19411913 -0.077381335 0.21929124 0.22752512 -0.11331923 0.11741103 0.68510604 0.5092609 0.3761483 0.29065457 0.092434675 0.3894857 0.57112765 0.112945214 -0.58396333 0.387906 0.45931235 -0.0014932367 0.32333454 -0.8455525 1.1070846 0.3193176 -0.27104494 -0.44960022 -0.32868224 -0.008901308 0.8694192 0.6038228
know -0.22299731 0.53424484 0.31120953 0.60865146 -0.06984169 0.29694694 0.090866834 -0.80324054 0.46401826 0.23026897 0.5997282 0.4951692 -0.6255677 0.13392329 -0.21281368 0.39262787 0.46806416 -0.030650564 0.24904452 -0.20265786 0.22015959 0.14072718 -0.5532434 -0.7050093 -0.6947392 0.17542142 0.5366005 0.31231317 0.12837377 0.2224766 0.40226215 -0.060317818 -0.26468933 -0.10759501 -0.2956165 -0.36418992 0.25521126 0.47472778 -0.4358414 -0.20976683 -0.24707167 0.11139254 -0.88478136 0.2478048 -0.10341163 0.79145575 -0.23698646 -0.156509 -0.5394309 0.28912026 0.20987715 -0.41412374 0.8372455 0.102715425 -0.26513988 0.46815288 -0.8254282 0.13760655 -0.021417314 -0.057576694 0.6134044 0.053460013 0.7037315 0.49789444 0.30162162 -0.4396893 0.3507054 0.57786715 0.07836305 0.25629836 -0.14715369 -0.3316138 -0.13204259 0.629098 0.21286671 -0.52261496 0.21502613 -0.57127285 0.574043 0.05292987 0.6650834 0.44812042 0.045728542 -0.2957593 0.12217485 -0.51721555 -0.07597294 0.17385334 0.049792428 0.007168851 -0.11626126 0.60683554 0.48304462 0.32854605 0.1456668 -0.24193156 0.3744838 0.079764895 -0.017310692 -0.11708079
herself -0.20194738 0.0600646 -0.23685375 -0.5237448 -0.3862588 0.7499033 0.1620668 -0.4080855 -0.28944966 0.2776553 -0.67503834 0.049218383 0.2746616 0.45666623 -0.0144380685 0.19920903 -0.64166224 -0.24667422 -0.05481467 -0.28358778 -0.97523654 -0.07840438 0.81013393 -0.32398337 0.17167726 0.032530922 -0.28460324 0.16988088 -0.50798523 -0.060775105 -0.28071988 -0.31345522 -0.18194588 0.8592202 -0.60222065 0.051395204 -0.4063904 0.3365597 0.48323917 -0.34814453 0.0962948 0.14572018 0.070340514 0.56549275 -0.60556257 0.10871513 0.8273635 -0.40625045 -0.39302403 0.35449773 -0.2358725 0.54195815 -0.29249534 -0.44746017 -0.59404457 -0.35531706 0.22683729 1.0301899 -0.44502866 0.47816113 -0.1417202 -0.7107724 -0.8371932 0.26986462 0.8452678 0.19541511 0.12882406 0.30891567 0.6263585 0.18450889 -0.4196855 0.20937754 0.030895034 -0.13166858 -0.4723726 -0.13967547 -0.33660635 0.019973435 -0.2744046 0.4091975 -0.25691757 0.27055943 -0.25295028 0.8135434 -0.23738793 -0.18641298 -0.14331587 -0.53549147 -0.49405026 1.3112315 1.0247107 0.25349557 -0.22337587 0.2098016 0.52371633 -0.033070188 0.6587851 0.30049285 -0.30740136 -0.46644774
have -0.5355265 0.653901 -0.012809314 -0.18277861 0.01058981 0.3515978 0.79161763 -0.56623226 0.64937025 0.6446902 0.02427658 0.009094282 -0.37271923 0.055130854 -0.057927735 0.26693913 -0.051064767 0.8477036 -0.65673816 0.49740753 0.12404037 -0.5603866 0.9148955 -0.095242254 -0.5128615 0.017356548 -0.5720449 0.30886143 0.20785284 0.101178125 -0.05848799 -0.81943774 0.4917675 0.23690934 -0.42574984 -0.23624371 -0.14440103 0.32291886 0.15029407 -0.6112825 -0.31944624 -0.2973557 -0.13553427 0.5270345 -0.8209926 0.2483115 0.07452137 0.066037655 -0.18775444 0.86555856 0.2074106 0.63394696 0.2509227 -0.274994 -0.1518431 0.11491968 -0.41490018 0.739422 0.4672559 0.37533414 0.48706853 -0.1879149 -0.43464148 0.0667712 0.4334711 -0.3847082 0.38177955 -0.15922725 -0.5105233 0.45882687 -0.3573657 -0.9714803 -0.35992882 -0.63467383 0.15041254 -0.2941034 -0.5724226 -0.64046943 -0.5075465 0.19121131 0.65715104 -0.21386518 0.44656187 0.18828353 0.020068524 -0.42557472 -0.09694957 0.4495405 -0.18717352 -0.071506605 0.13250314 0.28199112 0.56184644 0.07833398 0.77812785 -0.56405497 0.22399797 0.3996224 0.736716 0.16966178
then -0.13412431 0.21728832 -0.03979013 -0.15371966 -0.2309863 0.36049932 -0.67749894 -0.46773165 -0.26527554 -0.5166918 0.026114764 -0.22913527 0.31008947 -0.5044109 -0.30470884 0.6270334 -0.5198788 0.14343354 -0.06803508 -0.15579742 -0.029390443 -0.56090945 -0.19430089 0.25900242 -0.2939027 0.337302 -0.06407201 0.021176402 -0.21899243 0.11742915 -0.0721154 0.4317302 -0.033856478 0.3143886 -0.4012768 -0.58273625 0.22602262 0.6730268 -0.05269112 0.39328548 0.76079714 -0.076598175 0.36038658 0.06849173 -0.16598661 -0.3890441 -0.018255815 -0.2459051 -0.13164255 0.327052 -0.38179037 -0.00039791665 -0.16508661 -0.122695304 -0.073396415 -0.070759915 0.6582512 -0.1076561 -0.15053107 0.19462419 0.032201346 -0.28623626 -0.57249063 0.04842301 0.37479523 0.55230075 0.1972278 -0.7494546 -0.4760111 -0.21282162 0.11445611 0.40907583 0.39455086 0.26922762 -0.07018771 0.10202876 -0.15520784 0.09719611 0.2602847 0.5314727 0.43933454 -0.28275892 -0.100449644 0.40018657 0.074329086 0.45641902 0.051313285 -0.30288774 0.59499353 0.3920758 0.62819564 -0.4970284 -0.1524785 0.086669974 0.012359747 -0.3993097 -0.3420877 -0.29535797 -0.24842162 -0.07198578
went -0.2207636 0.12258393 -0.3103309 -0.20927301 0.74296165 1.0600355 -0.13843143 -1.0342842 -0.20954417 -0.72028166 -0.05308385 0.45655328 0.4501679 -0.39183703 -0.3896874 0.395004 -0.18327476 0.1614544 -0.9017148 0.5653142 -0.9414013 -0.3955744 0.8228214 -0.14669584 0.6589448 0.5172226 -0.10327594 -0.99155474 -0.15224934 -0.34056345 0.0783963 -0.039791215 0.203988 -0.5185851 -0.3967606 0.3151534 -0.09614009 0.6076074 -0.02229959 0.46109283 0.70335776 0.43664983 0.14319362 -0.06988531 0.013963717 0.09712603 -0.09025123 0.0692568 0.3604582 0.88580126 -0.256328 -0.8842784 -0.38614574 -1.058138 -0.56521523 -0.46465343 -0.33244616 0.29749072 -0.43528488 -0.044355597 -0.27564433 -0.14907217 -0.13967448 -0.04542547 0.23555283 0.20270385 0.30334374 -0.14597271 -0.0061747166 -0.2626224 0.06630959 -0.72240126 0.2020603 -0.2622526 0.3522814 0.11858779 -0.73470634 0.2717725 0.6520103 -0.31079444 0.44085875 0.8201119 -0.22073452 0.5893836 -0.80843645 0.22418155 -0.17768627 0.041179225 -0.61602604 1.2088611 0.421095 -0.28551078 0.6614482 0.24259488 0.5282245 -0.31435814 0.56751096 -0.049893305 0.10754711 -0.49823093
again -0.66867304 0.15969191 -0.6108599 -0.3629363 -0.42872322 -0.9357543 -0.08209986 0.07451153 -0.32991755 -0.20205694 0.11900392 0.2750483 0.82091063 -0.8680142 -0.11733141 0.19295953 -0.12898912 0.008030081 -0.86833805 0.43933317 -0.25499183 0.15065777 0.5926166 0.07758787 0.09784868 0.58771443 0.49517095 0.14380205 -0.6806272 0.10387072 0.2512761 0.5703505 -0.14075151 0.39398882 -0.20540188 0.44368216 -0.23764704 0.38884595 0.19953841 0.21457377 0.28352156 0.2878254 0.31939662 0.03368003 -0.16264446 -0.15231436 0.051318977 -0.087642424 -0.107241355 0.48090044 0.51712376 -0.15183073 -0.16200191 -0.1728748 0.049819674 0.28352293 0.6463523 0.17898108 -0.123875275 -0.36927083 0.22040719 0.08115351 -0.825671 -0.19589749 0.07558275 0.23243657 0.451502 0.26656485 -0.093309574 -0.38191095 -0.14318742 0.017911537 0.05053379 0.09197588 0.19262613 0.06460293 -0.59597546 -0.027649043 0.15163204 -0.07676042 -0.3085731 0.39110765 -0.06697032 0.23807088 -0.54377776 -0.19785719 -0.6066677 -0.5531317 0.28026596 0.017928641 0.51436377 -0.34535992 -0.05854923 0.2577126 0.0864205 0.104283035 -0.4449649 0.35920382 0.029540908 -0.013965735
project -0.06573567 -0.744998 -0.40962058 -0.14271435 0.6812462 -0.4143136 1.2168825 -0.43347606 -1.4940382 1.3397639 1.048371 -1.468553 -0.16290344 1.2033361 -0.780508 0.35639325 0.5781823 -0.48509866 0.36803073 -0.17922123 1.3442125 -0.4777198 -0.10718305 -0.05949678 -0.33889836 -0.75535715 0.15506466 -0.93530697 0.5671863 0.8558629 -1.4159521 -0.104145795 0.11121603 -0.61509484 0.3303119 -0.26121283 1.0241572 0.48291102 1.2294087 -0.06918028 -0.54792804 -0.06786079 0.28809735 -0.6603723 0.24847798 0.164798 -0.5355581 -0.8739695 0.08911577 -0.7886942 1.0363785 1.0522157 0.5446887 0.13084422 0.4143067 0.23989356 -0.08683345 1.1016304 -0.92350185 0.2771632 0.5692317 -0.58846843 0.038644157 -0.3161931 -1.1807014 -0.19574814 -0.57768273 -0.09018471 -0.95738 0.7764016 -0.17729452 0.3354928 -0.63593817 0.4324022 1.0730541 -1.01083 0.9086041 0.15673131 0.3585073 0.43584883 -1.2299544 0.12925132 -0.18951999 -0.574216 -0.34026787 -0.1954945 -0.16728267 -0.3257105 0.8155575 -0.94606644 0.47367787 0.48481962 0.19984685 0.7825871 0.90101945 0.43151918 0.63581645 0.8378551 -0.33446965 0.016740464
would 0.54594034 -0.22167507 0.91308475 0.03385222 0.6803338 0.16425042 0.5205617 -0.008935079 0.86736614 0.73323756 -0.080728665 -0.037468538 1.1611236 0.97581655 0.7608593 -0.09780858 0.055566233 0.63080984 0.4835557 0.5464137 -0.3995127 0.5347417 -0.16999452 0.2969517 -0.26486513 -0.19027372 -0.98216987 -0.20434433 -0.5217056 -0.29063383 0.32537922 0.118696935 0.37124288 1.1546394 0.2536552 0.016818825 -0.61993545 -0.39422137 0.5972799 -0.7046438 -0.04497268 -0.16463828 -0.062244218 -0.5955086 -0.097708136 0.19330716 0.17380771 -0.31751326 0.29050586 -0.05792136 0.33433968 -0.4169308 -0.24409981 -0.029449329 0.05137438 0.14980519 -0.0051356065 -0.82317305 0.54976785 -0.42312664 0.4433833 0.004162715 0.62914616 0.11636111 0.73388624 0.5077879 -0.27497414 0.030472677 0.56115776 0.7891464 0.35158977 -0.29788336 -0.5078481 0.47224388 0.6670224 0.16626364 -0.42957485 -0.13498293 0.1965153 -0.5543562 0.21298254 0.20405214 -0.20737055 -0.0035473953 0.061582748 0.26055983 -0.6079142 0.49787226 0.2577272 0.14400578 0.50356156 0.26314405 -0.083337106 -0.084572166 -0.17996098 -0.2170625 0.25970155 -0.1994314 0.5712258 -0.2998792
by 0.63052464 -0.44308537 -0.6021032 0.15673736 -0.346122 -1.0038344 -0.40104306 0.096647285 -0.4853869 0.41981027 0.21845977 -0.27636108 -0.075571194 0.4166304 -0.33140296 0.102098435 0.07261171 -0.112932004 -0.048076373 -0.15893649 0.7198303 -0.46540627 0.27679858 -0.31219584 0.6719946 -0.44177097 -0.29247385 0.03089435 -0.14907803 -0.20366468 -0.12880312 0.08963663 0.24098049 -0.2895754 0.30593088 0.0016984784 -0.5632128 -0.024109973 -0.12025077 0.028364208 -0.059814725 -0.5309452 0.02172551 -0.709485 0.17275098 -0.7621942 0.278696 -0.35190004 1.0245739 -0.3886646 -0.13544479 0.15737616 0.05291168 0.2813575 0.6010423 -0.56797564 0.40440834 -0.4843721 -0.49725002 -0.3168545 -0.35513297 -0.14921716 -0.37013128 -0.04495248 -0.28998885 -0.156627 0.15607642 -0.25851193 -0.36821085 0.45290333 -0.119266056 0.22517034 -0.113464326 0.20062533 0.015091212 0.09261383 0.08755651 0.11007495 -0.40628934 0.26513955 -0.36219737 0.13189012 -0.29487565 -0.088813365 0.15570284 -0.54585433 0.017870124 -0.03534698 -0.09005117 -0.15629198 -0.6181227 0.09134689 -0.5478972 0.18169789 -0.37098822 -0.06809111 0.17659323 -0.21377619 0.02414099 0.22096182
could 0.09388387 -0.26673058 -0.19311568 0.5133441 0.22150145 0.48174945 0.38972583 -0.09255721 1.3060029 0.030408958 0.09180574 0.28800258 0.3943076 1.0961809 -0.06855709 -0.5336417 -0.1278152 0.12930317 -0.032727696 0.62461424 0.12598237 0.31410897 -0.8537309 -0.7944033 -0.68654937 0.1802384 -0.41445324 0.4533237 -0.5077137 -1.0269463 0.7068314 0.23855291 0.21151727 1.3256661 0.15367933 0.60124665 -0.047153484 0.63697106 0.40267694 -0.8224624 -0.010632616 0.20877407 -0.30962864 -0.6964697 -0.66596645 0.6974262 -0.5280128 -0.50678134 0.1421181 0.8387149 -0.13556632 -1.0255609 0.22053745 0.5447461 -0.20429182 0.6546321 -0.06575269 -0.9918827 0.6390536 -0.54278326 0.49376553 -0.48570663 1.107579 0.59082067 0.9899339 0.56045383 -0.39975563 -0.3711418 0.24957405 0.6219644 0.12282484 -1.2028645 -0.2548117 -0.3347606 0.5167799 0.6026201 -1.185364 -0.5535183 0.58360445 -0.4210445 -0.0045393105 1.177733 -0.6880078 0.18117253 -0.32040918 0.11347524 -0.61626834 0.0865889 -0.29119897 0.084632434 0.8326595 -0.28703994 0.71550065 -0.65893996 0.82125694 -0.18490157 0.07239923 0.017636621 0.7696369 -0.7366455
when -0.43994847 -0.39358008 -0.09325815 -0.37891746 -0.5117175 0.39301616 -0.19124976 -0.36289892 -0.19046186 -0.16620411 -0.1199577 0.0068052774 0.4851087 -0.19323866 0.17983666 0.061622147 0.23997897 0.5112114 -0.08891521 -0.33012486 -0.20062609 0.04936773 -0.5510213 0.1774047 -0.3377598 0.5159578 -0.14559369 0.46558213 0.1809839 -0.27611083 0.22461449 0.44233236 0.31022412 1.2292528 0.3300021 -0.54418856 0.7358966 0.41807565 0.05271941 -0.5086337 -0.04329002 -0.21567011 0.38302058 -0.26079664 0.026848089 0.19010842 -0.52604365 -0.58416486 0.24918182 -0.0026306198 0.2309142 0.23456354 -0.27886727 0.21320753 0.17020975 -0.2443958 0.97041327 -0.328767 0.19644053 0.238089 -0.6505367 -0.043748666 -0.027874015 -0.34675986 0.62953186 -0.017690381 -0.45260257 0.3379898 0.5443112 -0.06080469 0.07105662 -0.29295763 -0.33358562 -0.6291657 -0.36812302 -0.50651294 -0.05767103 -0.31940198 0.5454901 -0.39510563 -0.086093366 -0.3250709 -0.040613312 0.6526357 -0.05477385 0.029632412 -0.04362703 0.09840009 0.36994502 -0.4094141 0.40702134 0.06898759 0.44828317 0.17152962 0.07070624 -0.21547571 -0.9517997 0.08103882 0.16848016 -0.20086576
any 0.7625954 -0.3170912 -0.46442732 0.28611997 -0.15654704 -0.31455025 1.1854196 -0.044454314 -0.08455609 0.6280078 0.17973764 -0.27143323 0.29470336 0.8161683 0.810252 -0.3934426 0.64289933 -0.16093495 -0.36394623 -0.46360478 -0.23243378 -0.46602154 -0.6122565 -0.77425504 -0.83655554 -0.5371514 -0.18688427 -0.69405 -0.5875367 1.0540551 0.19930868 0.48944706 -0.7007525 -0.6837414 0.21431309 0.918342 -0.19214495 -0.5361026 0.018957678 -0.6449882 -0.4734804 0.32940295 1.0069234 -0.61165506 -0.11816771 -0.4911859 0.27011317 0.21734193 0.17524356 -0.21663038 -0.41746345 0.88056266 0.16869405 0.556195 -0.5215321 -0.44635993 -0.5101684 -0.74359435 -0.3290028 1.1577432 0.5110899 0.5973032 0.34619877 0.015804335 -0.08390138 -0.56049114 -0.15302563 -0.56930375 0.31496257 0.5820999 0.5950888 0.36538818 0.43457544 0.41749164 -0.28383395 -0.3413737 -0.3374106 -0.087462105 0.26890203 -0.0079740705 0.23507589 0.16915847 0.21015024 -0.26565313 0.02741473 -0.21365552 -0.66045916 0.34526658 0.5462833 -0.57142776 -0.14095245 0.43458834 0.7501271 0.4923611 -0.2423552 0.29512647 1.2664123 -0.64331657 -0.38432652 -0.047613718
thought 0.7675609 -0.08719095 -0.07133745 -0.24352679 0.42578796 0.57802254 -0.06686358 -0.8798415 -0.22272423 -0.82387364 0.3290512 0.11898005 0.11383814 -0.37756366 -0.37356564 -0.080135405 0.04605496 1.0805001 -0.61587834 -0.1637513 -0.57391405 -0.24273273 -0.63299936 0.19877256 0.41853154 0.34412655 -0.14989872 -0.074699655 0.51258266 -0.24631427 -0.025617277 -0.6388654 -0.19892173 0.15023017 0.16502741 0.35647807 0.49076685 0.2327817 -0.16729066 0.12195616 0.895925 0.3085958 -0.31216437 -0.40684316 -0.22231975 0.6264284 -0.20676155 0.477119 -0.7326593 1.3816407 -0.47014987 -0.62309444 -0.18401584 -0.43993074 -0.50107074 0.037535813 -0.07092718 -0.608211 0.07709725 -0.9150214 -0.5561863 -0.08492067 0.7134834 -0.7722983 -0.9915642 -0.010271191 0.2190416 -0.37949973 -0.034853987 0.02275409 0.06230001 -0.66565657 -0.049910434 -0.35490942 0.6243438 0.25367096 -0.29258156 -0.3511345 0.62717175 -0.05701307 0.3666808 0.79903257 -0.27854452 0.8336341 -0.69259644 0.4328537 -0.36485985 -0.8358859 -0.6656452 0.68067175 0.7161412 -0.33402887 0.87033695 0.3336641 0.88924354 -0.6764527 -0.2994372 0.48366818 1.1783463 0.09433503
there 0.05804847 -0.8460431 0.02927942 -0.18166374 -0.3364094 -0.26802152 0.37634283 0.8184003 -0.31120035 0.9116228 0.03412687 -0.41627583 -0.19327162 0.06838416 0.8353999 -1.267709 0.13751344 -0.19042447 0.17803589 0.4793488 -0.17313278 -0.2441992 -0.14955655 0.6804527 0.33297762 -0.78625804 0.6105206 -0.33418524 1.1844376 0.117743924 0.53009343 -0.25322172 -0.19385993 0.19487005 -0.4568157 1.4318137 1.3341084 -0.7359211 0.46300694 -0.6987897 -0.37237078 -0.47430897 0.58711034 -1.02985 0.13973492 0.16579181 -0.26838318 0.28329504 -1.1544123 -0.28684065 0.15855132 -0.6906688 -0.19961867 -0.21362263 -0.35782564 -0.6553917 0.40123338 -0.76376486 0.74104303 -0.128248 0.38011572 0.50561565 1.0233198 -0.41290757 -0.34074697 -0.34112865 0.24559924 0.46665666 0.25783938 0.3424253 0.3973115 -0.25479618 0.51342785 0.09596814 -0.25886515 -0.34038264 0.66458577 -0.36654702 -0.7225682 0.6760347 -0.14898665 -0.83616054 0.45874232 0.5384858 0.07737608 0.33226705 -0.7996947 0.6689423 0.13729888 -0.28494313 -0.8131057 0.13175812 -0.910236 0.3537836 0.18955092 -0.23226632 0.441916 -0.095830545 0.8814127 0.11207968
time 0.45022082 -0.3011632 -0.33992457 0.015337784 -0.353182 -0.1857841 0.023140362 -0.050511833 0.07524211 0.25241795 -0.15341482 -0.5074603 -0.033519525 0.50570583 0.14870383 -0.028843623 -0.4155661 0.57038265 0.17858778 0.6831001 0.37451676 -0.889965 0.8923921 0.21724488 -0.27882698 -0.41095957 0.5607642 -0.1856149 0.027648503 0.4457405 -0.155212 0.5569408 -0.029061498 0.008156416 0.08311453 -0.102186896 -0.072460726 -0.49497333 0.42908534 -0.58355504 0.04151161 -0.2602158 0.3182245 -0.4165741 0.25993308 -0.075425774 -0.3076828 -0.07433245 0.29404888 0.34549466 0.6217252 -0.32153127 0.16013314 -0.11412993 0.12535934 -0.13339268 0.10261756 -0.6885529 -0.6211587 0.3570099 -0.49520078 -0.4619785 -0.1634613 -0.045319006 -0.36400053 0.6460187 -0.3904321 0.33017918 0.076949045 -0.7274544 0.051699627 -0.33695483 0.3584513 -0.61477035 -0.04366773 -0.6547355 -0.09046377 -0.037445467 0.27403358 0.5754511 0.7446423 0.2775339 -0.5055282 0.58912694 0.16535495 -0.23866865 -0.4099095 -0.33183604 -0.40440252 0.051194955 -0.022567766 -0.034513842 -0.33902678 -0.37696415 -0.3812914 0.025262587 0.23370919 0.30845657 -0.05389551 -0.6469989
see 0.044659376 0.35485864 0.10818146 -0.14586577 0.091258176 0.6244929 0.32509622 -0.80164766 0.074947126 0.35030764 0.02987596 0.2679875 -0.36060998 0.029132191 -0.25364202 -0.3901233 -0.12403384 0.46452063 -0.15609364 0.253813 -0.5207511 -0.009790179 0.39631325 0.5582861 0.18384713 0.35410643 0.20253097 0.19597107 -0.44709802 -0.45075914 0.62912667 -0.44981122 -0.124014586 0.47849637 -0.30475464 -0.37335175 -0.31411678 0.16171403 0.042467423 -0.74143106 -0.046251368 0.27022663 -0.15934706 0.14674263 0.20743813 0.63243943 -0.25645256 0.106551066 -0.51437646 0.71785694 0.40467197 -0.19341218 0.118530154 -0.4350889 -0.47426835 0.1515143 0.09716432 -0.28936136 -0.3918052 0.30246642 0.18103474 0.16877958 0.16608761 0.16331367 0.6364779 -0.028485253 -0.046896625 0.59029144 0.11623445 -0.33086362 -0.42681813 -0.21487172 -0.2378987 0.26491293 0.8012784 -0.5079768 -0.66825056 -0.5511199 0.715293 -0.23629363 -0.014872331 0.21111013 0.34637702 0.34189972 -0.58212435 -0.3505431 -0.84051853 -0.20482433 0.23331791 0.05218932 -0.190516 0.08943595 0.44138455 0.368895 0.37886995 -0.06636916 0.5080069 0.32479346 0.4306182 0.070248574
your 0.20403112 0.35391977 0.31311807 1.1811202 0.6623866 -0.042458456 0.39094982 0.40509972 -0.052622907 -0.26493004 0.7959644 0.50452393 0.2903828 0.8328885 -0.4308678 0.72626513 -0.22662821 0.44430804 0.64240515 -0.3960485 -0.2642111 -0.014444365 -0.606392 -0.18388389 -0.56056595 0.70624685 0.34948775 0.7283713 0.36438823 0.2529552 -0.109281056 -0.16802049 0.77163565 -0.5183397 -0.3850182 -0.44851992 0.35331017 0.7713292 -1.040089 0.59088254 0.94619703 -0.18316224 -0.17964558 0.59356153 0.97792846 -0.61418873 1.0136585 0.87761533 -0.33220175 -0.20427135 0.1399232 1.1928068 -0.94920117 -0.11664759 -0.6809482 1.0551362 -1.0764614 -0.20430219 0.12415643 -0.46653253 -1.0420922 -0.15325397 -0.9559021 -0.33138263 -0.5342548 -0.32421854 0.63225245 0.1478458 -0.99142146 0.025479756 -0.66826564 0.12546824 -0.20559923 -0.94769424 0.67008126 0.23713936 -0.17896844 0.7282886 0.20240004 0.68338466 -0.7166548 0.30394793 0.5116781 0.0053199776 -0.35861912 -0.57583266 0.46279553 -0.29842317 0.022487046 0.32805803 -0.26915118 0.6816795 -0.3479539 -0.8256179 -0.56359744 0.09038579 0.6463685 -0.5474279 0.28422955 0.6345664
into 0.34836006 -0.47150567 -0.36827385 -0.47679707 0.15949985 -1.0717252 0.06595802 0.71362317 0.14471358 0.42254806 0.59978586 -0.5240763 0.43255362 -0.36889255 -0.4134104 -0.049272127 -0.19871514 -0.039002135 -0.3951737 -0.18955313 0.4906748 -0.0011367401 0.33146706 0.19112107 0.3213495 0.0010108993 0.16527133 0.38732097 0.25194538 -0.33700895 -0.132413 0.4630725 0.62112683 0.80859274 0.15283659 -0.3929779 0.3595134 0.16331209 0.65075856 -0.4264115 0.40733296 -0.1407835 0.9783875 -0.389356 -0.42058295 -0.45804223 -0.18718794 -0.14864543 -0.18083216 0.26836336 -0.33729494 -0.110848576 -0.24046433 0.51155066 0.09550305 -0.3510361 1.2086675 -0.028213302 0.37052435 0.4490365 0.66348076 0.18971139 -0.46861765 0.037494037 0.1928206 0.96021825 -0.21305071 0.50914514 0.2859038 -0.045302454 -0.47092438 0.024901979 0.15390587 0.24562885 -0.17993145 -0.33624747 0.32116878 -0.2742004 -0.099441186 -0.11366605 -0.3101002 -0.6162158 0.5024023 -0.08775568 0.40617764 -0.30987048 -0.80518085 -0.27720323 0.19470516 -0.7412895 0.77959543 -0.7013257 0.055349212 -0.17467318 -0.28710687 -0.5508399 -0.69018024 0.14956026 0.19597016 0.21038589
me -0.34306243 0.4351299 -0.31341657 0.24646239 -0.23071404 0.104521185 0.34442863 -0.42562047 0.39720955 0.503697 -0.1766624 0.59136957 0.42815346 -0.16340362 0.33413488 -0.276806 -0.34152853 -0.025394578 0.39696127 -0.45696622 0.3596319 0.24123459 0.27676958 -0.04075141 0.032415863 0.5731696 0.50708514 -0.09185161 -0.13705781 0.14009857 0.61942106 0.03680909 -0.16786975 0.13422924 -0.5165867 0.79885954 -0.42422432 0.20932938 -0.32013354 0.23314679 -0.34375614 0.6994276 0.034628037 0.87622744 0.14964484 0.27120528 0.15633836 0.20567252 -0.7080776 0.37879866 -0.5096758 0.018300747 -0.07793825 -0.72485715 -0.06790602 0.38896337 -0.14002681 -0.07236729 -0.027431732 0.019824581 0.709052 -0.20921107 -0.40913862 0.469259 0.51064056 -1.1810502 0.33190283 0.5552226 -0.452166 -0.14266968 0.15665062 -0.30400872 -0.8824206 -0.8986178 0.14730677 -0.52995497 -0.5200355 -0.9889854 -0.6709574 -0.17260256 -0.036972985 0.6010362 0.03411095 0.50987816 -0.5980635 -0.4352318 -1.0375872 0.46489623 -0.53033143 -0.16821222 -0.725076 -0.1396228 0.06319562 -0.7329516 0.5399135 -0.0673919 0.68032753 0.17063905 -0.06677642 0.5461638
are -0.46934953 1.0268718 -0.13195737 0.14173734 0.6563811 0.85236335 1.008087 -0.1386476 -0.43544817 -0.033448443 0.85467213 0.051503554 0.13201576 0.8422628 0.07860465 -0.8640752 -0.00075801427 0.1180568 0.058851734 -0.15297765 -0.554981 0.7012126 0.389316 0.33655283 0.41065565 -0.10412666 0.46305415 -0.8788921 0.5947258 -0.26553628 -0.317042 0.20403689 -0.5802149 -0.37486205 0.5049542 -0.9116888 -0.26518425 0.9998669 0.02115054 -0.50636226 -0.6482529 0.13479017 -0.3940374 0.081883505 0.5530264 0.8417163 -0.55631286 -0.035196267 -0.1322945 -0.40098435 -0.022085633 0.10514269 0.71099675 -0.07217133 -0.38670647 0.5279579 -0.649342 0.12689637 0.3410616 -0.24869727 0.3228708 0.5163074 0.072507724 0.43587753 -0.17921194 0.03165403 0.40703675 -0.35357752 -0.49147677 0.35114783 0.0007691999 0.004642997 -0.7448902 1.085237 0.31784785 0.34646305 0.5550955 0.34535864 0.35854045 0.6823413 -0.23013496 0.87601453 0.78152937 -0.123241805 0.44602978 -0.14188161 -0.0686997 -0.38704088 0.22402735 0.5883958 -0.043375384 -0.28617516 0.1744105 -0.23911606 0.33403668 -0.19358778 0.82703185 0.028730722 0.75311047 0.26226568
queen 0.43590295 -0.4443556 -0.16530035 -0.16165444 0.53697467 -0.4990658 -0.45081785 -0.07510718 -0.39683163 -0.3031544 0.80948263 0.022854608 -0.22460748 -0.13963532 -0.48415586 0.28033546 -0.08144808 0.51270777 0.53065425 0.4783154 0.3180096 -0.29260033 -0.5090826 0.3042733 -0.6053135 0.3386273 0.12609598 -0.15126443 -0.34491128 -0.6066234 0.14968005 0.14648108 -0.0070745577 -0.24455489 0.3074946 -0.32515645 -0.10412401 0.0849189 -0.327345 0.40428144 0.17755339 -0.1445468 -0.45004794 -0.19102655 0.65228105 -0.4790489 0.41268843 0.25345558 0.2660816 -0.27956074 -0.1511639 -0.43465105 0.060684934 -0.30772892 0.07886513 -0.44309345 0.7997709 -0.4286958 -0.09635382 -0.16277361 0.0686945 -0.26205078 0.32632515 0.38356423 0.3315714 0.34362727 0.088085875 0.086400606 -0.38818234 -0.46484628 -0.16545254 0.29220045 0.1426065 0.13879806 0.08354719 -0.17118666 -0.596624 0.36052534 -0.31297693 0.7929185 0.4118551 -0.038249902 0.007900045 -0.21020223 0.25122714 -0.23617613 -0.18066737 0.045155987 -0.1880945 -0.34571877 -0.489051 -0.310948 -0.82736063 -0.19362132 0.00096779026 -0.50496215 -0.2897877 -0.05226675 0.16556494 0.199883
off 0.31628042 -0.122899555 -0.5602721 -0.15578005 -0.05538602 0.32110253 -0.5596042 0.2745668 -0.26230076 -0.42239162 -0.050437637 -0.13199858 0.203269 -0.06535965 0.5523986 -0.09705741 -0.3030186 -0.4327779 0.68604743 0.022841694 0.313698 -0.23882915 -0.282325 0.08772292 0.11836575 0.33487752 -0.09990578 -0.16961274 -0.90933514 0.63743216 0.679898 0.3216887 0.023265647 -0.02034304 -0.18740487 0.65692496 0.093781956 -0.56456536 -0.273506 0.23865883 0.24533395 -0.033939477 0.36384997 -0.19729279 0.06867177 -0.68787295 0.1558353 0.15496586 0.114175834 0.4404265 -0.36956295 0.8916596 -0.28145233 0.02182015 -0.011890851 -0.08116059 0.360344 -0.62584037 0.12967576 0.4239875 -0.3244659 -0.28844157 -0.46572062 0.06280463 0.9862368 0.48579693 -0.11518116 -0.06365325 -0.088143446 -0.6457451 0.42256495 0.06780662 -0.19936636 -0.09538429 -0.44470897 0.3946216 -0.12488333 0.022397012 0.26740572 0.045198504 0.3491018 0.17274934 -0.08402768 0.420446 0.13935015 0.1694049 -0.25469792 -0.5394493 0.29485247 0.14303908 0.19306402 -0.023460513 -0.06610394 -0.27354378 0.21081305 0.027284246 -0.30303082 -0.34046006 -0.6944734 0.060293857
its 0.30525225 -0.13115613 -0.3249917 -0.29382718 -0.6156944 -0.8609864 -0.39733043 0.030475821 0.5781494 0.39794275 -0.2306597 -0.34338152 0.77173686 -0.24350557 0.39920992 -0.07040523 0.14288975 -1.5694118 -0.20513695 -0.20576665 -0.100205265 -0.50814277 0.6908436 -0.4200568 0.8593885 0.18968499 -0.7148548 0.58291036 -0.14845756 1.1952223 0.43407997 0.955844 0.18366049 -0.87468076 -0.39257163 -0.30853385 -0.33219227 0.27941582 0.53306645 -0.12914804 0.34655845 0.40609795 1.1768698 0.3111065 -0.27723244 -0.89855343 0.37121683 0.3899722 0.17719114 -0.4836258 -0.65018386 -0.01786155 -0.31719908 0.1284086 0.27239415 -0.3512622 -0.052296963 0.71102077 -0.38074222 0.3654937 0.50060034 -0.24379432 -1.0188259 -0.082936354 0.33696446 0.4331038 -0.25260255 0.37044176 0.26563466 -0.7780518 -0.6636136 0.6466729 0.43447706 -0.8560998 -0.37263167 0.56668186 0.24911863 0.6769439 -0.07035613 0.56234115 -0.6449979 -0.56611305 -0.5805673 -0.11454004 0.23110345 -0.412274 -0.3264481 -0.5448404 0.50733954 0.1970606 0.41267824 -1.0572938 -0.07894662 -0.26329812 -0.57238936 -0.00061287876 -0.24110804 -0.31299785 -0.28492212 -0.3507268
did 0.50072813 0.40587714 -0.30125973 0.20248374 0.18115881 0.57474566 -0.1530104 -0.39396587 0.57762873 -0.2176772 0.033574834 0.034247614 0.49088472 0.7313974 -0.70681584 -0.049235053 0.09691078 0.61916125 -0.10320696 0.6268975 -0.54574794 0.28184447 -0.52971476 -0.33042353 -0.39549768 -0.13407604 -0.7723377 -0.41473213 -0.49970657 -0.8510396 0.3657465 -0.3791799 -0.21118093 0.7763743 0.17212822 0.103403464 -0.6557141 0.7667301 -0.16382991 -0.5902953 0.38571942 0.13792396 -0.51610047 -0.615804 -0.49916247 0.29698262 -0.21883164 -0.27301186 -0.41895494 0.5039237 -0.056387417 -0.2590179 0.20885679 0.19561854 -0.36655086 -0.06070994 0.0397263 -0.26145312 0.66029006 -0.41703236 0.27840075 -0.1329745 0.5108274 0.21061413 1.3678274 0.6961158 -0.42971143 -0.5979358 0.43522054 0.05461588 0.13138351 -0.46167037 0.5030469 0.34536073 0.3581558 0.3735106 -0.9803306 0.1212627 0.079785466 -0.19007428 -0.31975177 0.54814106 -0.4972271 0.08274432 -0.44739652 0.28417265 -0.32210055 0.011507373 -0.60862494 0.67758316 0.79929227 0.3173346 0.6872585 0.11738205 0.42504993 -0.3363192 0.31493285 0.0039532227 0.6027243 -0.26191714
an 0.8998243 -0.10319686 -0.03094062 0.31271917 -0.22656885 0.04943252 0.21024129 0.4871674 -0.27974114 0.29967833 -0.61535347 -0.017806325 0.2112627 0.55956376 0.21106711 -0.029380143 1.0832198 -0.7044915 0.12683353 0.18807766 -0.90584517 0.0050065494 -0.11364286 -0.40651104 0.52949744 -0.9637953 -0.2997327 -0.4997775 -0.22076876 0.20292598 -0.18579505 0.1437776 0.45995876 -0.5204727 0.41357878 -0.099198535 0.31780237 -0.24750344 -0.5284659 0.20527321 -0.36254653 0.16651778 0.41262844 -0.1678298 -0.3104923 -0.15401605 0.87835246 0.2324471 0.1947786 0.0005422481 -0.81217617 0.29627252 -0.2677778 -0.5258203 0.48970386 -0.16925934 -0.521533 0.117050424 0.12954944 0.26028132 0.046540607 0.5900013 0.037482858 0.4547174 0.04710112 -0.115762256 -0.7769433 -0.15374686 0.60876155 -0.35695928 -0.023499498 0.29818693 -0.3959889 -0.121376365 -0.2767991 0.4599416 0.73279285 0.22582816 -0.2911125 -0.3668971 -0.54720926 -0.78577423 -0.3894341 -0.41731083 -0.5703508 0.20778205 -0.32505214 0.07717006 -0.5472756 0.25741383 -0.479153 -0.091107294 0.45309743 0.10803033 -0.0685367 -0.46952552 1.4884542 -0.27312195 -0.4595482 0.28277227
king -0.13547799 -0.25112545 0.05782852 -0.24266459 0.1893428 -0.57992303 -0.41577777 -0.19309779 -0.91574574 0.069906324 0.7411469 -0.11349635 -0.49046457 0.19352715 -0.8347221 0.5862289 -0.5329248 0.9466244 0.79479235 0.50717646 0.20925127 -0.34311578 0.19175968 0.2087064 -0.8600606 0.39067498 0.2742564 -0.3684436 -0.48714933 -0.47086206 0.21361072 0.074401416 -0.19210066 -0.05256028 0.044333868 -0.45431417 0.37639248 0.26548398 -0.1404371 0.6451547 0.20334797 -0.41505972 -0.647162 0.17906593 0.42025766 -0.57661104 0.7540419 0.08700765 -0.06468651 -0.538877 0.4018904 -0.50450057 0.057877075 -0.5672769 0.08823463 -0.45470798 0.7431519 -0.17181288 -0.2631393 -0.15131909 0.16041851 -0.36714306 -0.21927601 0.35810634 0.7868782 0.5713306 0.24917524 0.09043566 -0.23043759 -0.3160964 -0.24482112 0.29529667 0.12688941 0.46157214 0.0049798987 -0.21011803 0.3051964 0.48795208 -0.47335672 0.5880316 0.25061002 -0.25247523 -0.03201353 -0.6758592 0.07836297 -0.28003272 -0.26803866 0.22622977 0.11957704 -0.5824554 -0.5193969 0.35371557 -0.939465 -0.3194622 0.003254043 -0.29615653 0.42260143 0.06758751 -0.036027715 0.20470801
way 0.12999451 -0.41399327 0.31594598 -0.23925093 0.24168356 -0.24145885 0.0059290645 -0.112657286 -0.011993924 0.39895883 0.1464723 0.34133753 -0.48006982 0.28697515 -0.02673361 0.011139812 0.6585172 -0.38939822 0.099871516 0.09568876 0.38899764 -0.16408826 -0.25907817 -0.31565163 -0.20833562 0.42540124 0.2949891 0.16614206 0.2948121 -0.22772463 0.2292705 0.2377369 0.30734333 0.42135668 0.4443373 -0.35217136 -0.12462863 0.110085845 0.40729874 -0.0810047 -0.05950317 0.08750557 0.13727802 -0.036373455 0.19183084 -0.06472264 -0.037141662 0.22621067 0.5197933 -0.26577657 0.20730978 0.0058806743 -0.029947825 0.019791625 -0.23311679 0.07840188 0.5228499 -0.08878887 -0.27945977 -0.14708355 0.4096842 -0.4053253 0.26774552 0.55160147 -0.3825154 0.31254455 0.06533782 0.0499644 0.111668184 0.2534396 -0.15015028 -0.0056175576 -0.011855939 -0.5007119 0.01773344 -0.1449621 -0.006247186 -0.027744148 -0.29966334 0.37858388 0.4430174 -0.22637829 -0.19627486 -0.27497414 -0.12456201 -0.53823376 0.34105575 -0.43613887 -0.52931 -0.33934432 -0.20472388 0.03882601 -0.3301489 0.24269713 0.06969955 -0.17442897 -0.4114573 -0.08292966 0.21998501 0.13748825
began 0.20740467 0.33639094 -0.9520003 -0.9310892 -0.24493417 0.62317556 -0.34244305 -0.6585465 -0.7202692 -0.33484787 -0.5135081 0.44893113 0.69732726 -0.5067264 -0.33750275 0.38883004 -0.3600407 0.42179826 -0.4658871 0.23049262 -0.31797603 -0.74212223 -0.50538313 0.014527249 0.53646076 -0.04096853 0.3865688 0.051132545 -0.40508732 -0.31906006 -0.1511755 -0.2843829 0.15736362 0.09249158 0.2866203 0.0344417 -0.14730945 0.32914108 0.014336686 0.3042239 0.79160476 -0.22600083 0.03467887 0.36017543 0.20836306 -0.6710712 0.3762139 0.24392128 -0.3893923 0.6547657 0.0974822 0.5544826 -0.18085401 0.16058968 -0.14846879 -0.036687057 0.44553787 0.22602655 -0.3634644 -0.81567484 -0.7591907 0.1607918 0.04302069 -0.1569292 -0.41228476 0.07704218 0.23238195 -0.76135063 -0.26200703 -0.27027395 0.10799276 0.54502994 0.19716732 -0.07506332 0.25311995 0.6609962 0.13273706 0.46524584 0.8031929 -0.037426822 0.082171306 -0.12822327 -0.060636975 0.43085968 -0.65529746 0.1319721 -0.29676816 -0.068635546 -0.56665105 0.21874088 -0.107082166 0.027959676 0.5103566 0.29612502 0.15675926 -0.23475042 -0.2197681 0.109308675 0.78174067 0.5846495
who 0.22786671 0.6202804 0.46928152 -0.18659109 -0.3346355 0.0561035 -0.47794786 0.6260479 -0.6403403 0.006804727 0.113287725 -0.057980523 -0.32805184 -0.060153224 0.13318266 0.022295719 0.52195877 0.02687109 0.49783918 -0.078381136 -0.8854383 0.43003717 -0.21051791 0.8032764 0.3738364 -0.29424265 0.64457333 -0.2102907 -0.25584942 -0.020666322 0.67564386 -0.056914583 0.05867163 -0.57245636 -0.24367446 0.30291644 0.37543976 -0.0008624333 -0.1648049 0.32116675 0.10753927 -0.031372983 0.09525331 0.10155045 -0.2760663 -0.5219251 -0.5670685 -0.03650202 -0.22566581 -0.63690186 -0.06786691 -0.55147356 -0.62122744 -0.3165502 0.4493063 -0.8815615 -0.080863886 0.351949 0.15742293 0.103406005 -0.21049684 0.14081223 0.17929643 0.076283686 0.33947495 -0.043075543 0.12079547 0.13185228 0.25958195 -0.8596098 -0.15796636 -0.2445905 -0.19494262 -0.20996118 -0.62308896 0.50345886 -0.18631203 0.14022675 -0.5202043 -0.04496352 0.25769147 0.094207 0.12783608 -0.08283451 -0.055198677 -0.2668187 -0.10862353 0.20253345 -0.23152594 0.25080103 -0.63444006 -0.21369152 -0.077389166 -0.40403947 0.07225938 -0.7428116 0.46933195 -0.30235597 -0.31633165 -0.27126363
‘and 0.02153788 -0.32488558 0.28909096 0.35380352 0.31532183 0.24151704 -0.4422244 0.093545154 -0.13593729 -0.17369096 -0.43370166 0.20626315 -0.5599279 0.17800675 -0.026909918 -0.29030454 -0.016952656 0.7097642 -0.16101591 0.35937077 -0.6927525 0.723742 0.09633948 0.39164302 0.3977539 -0.23496944 0.10976316 -0.29620248 -0.5952849 -0.8459878 0.44409162 0.0040322253 0.002951469 0.476322 -0.51882744 -0.21813849 0.36453274 0.47170883 0.06139944 -0.0007842081 0.28042915 -0.5387457 -0.525683 0.28886187 -0.19979021 0.83130825 0.19377123 -0.028810948 -0.48742428 -0.6419965 0.26535285 -0.50575083 0.09401547 0.09171842 -0.20547676 -0.20631516 0.081975885 0.23740031 0.43696037 -0.1369333 0.08916092 0.28101742 0.8128079 0.0028825144 0.9968385 0.26964965 0.03746527 0.30127966 0.21695492 -0.60720253 0.50552833 -0.71868396 0.28254658 0.14276244 -0.20522082 0.07780154 -0.13754529 -0.20150097 -0.226545 -0.15156409 0.22231083 0.10077177 -0.19415723 0.10860355 -0.33887446 0.17690805 0.1999605 0.35010707 0.10040803 0.062579446 -0.28797844 -0.09294605 0.011345859 0.25241682 -0.10840994 -0.32378748 0.60853875 0.21019997 -0.060041443 0.41434774
mock 0.5320862 0.479174 -0.1934213 -0.46989343 0.4190976 1.6829637 -0.021981062 -0.6587707 -0.6607655 -0.8909663 -0.16815206 -0.52661353 0.37514406 0.08565499 -0.9421877 0.0061046095 0.7326939 0.9168688 0.99349964 -0.027582565 -0.6795739 0.27287015 0.31450474 0.1368035 -0.021361552 0.5962436 0.12259142 -0.7667967 -0.085206635 -0.7237786 1.04658 0.41090435 -0.546328 -0.599124 1.0436056 -0.7470264 0.3678957 0.42739248 -0.77366567 0.6565578 -0.29265013 0.09058506 -0.2832933 0.6297929 0.51512575 0.06756983 0.20606707 0.2664709 0.34799376 0.19020176 0.5986454 -0.7626825 0.5733239 -0.6384434 0.19968863 -0.5757521 0.20566794 -0.61230236 0.5984825 0.23490068 0.5448245 0.8694035 -0.47305062 -0.17232236 0.4417206 0.8869031 -0.2841947 0.2870137 -0.098532766 -0.7696907 -0.47583017 0.41177547 -0.8161767 -0.36842492 0.16383877 -1.1897537 0.18831526 0.63236827 0.6665675 0.40886712 0.21777594 -0.6835412 0.5033251 -0.18276908 -0.092829555 0.70187396 0.18682857 0.12470138 -0.04118297 -0.28110272 0.0072322143 0.55109924 -0.2775012 -0.5963579 -0.79995906 -0.41160926 0.45007864 -0.28080148 0.26385406 -0.11169136
quite -0.22441722 0.12573054 0.3448504 0.04775754 -0.11992562 -0.55020124 -0.12594831 0.5325911 0.24084467 0.2015595 -0.32096362 0.5572957 0.17188635 0.011545259 0.14611304 -0.15516941 0.11688076 0.14017104 0.15804732 -0.07896318 -0.29746214 0.1324653 -0.62126005 0.24490765 0.29619804 0.39237943 -0.47725022 0.14501353 -0.12979135 0.12908208 0.72339416 -0.5883557 -0.25592163 0.8172925 -0.41063938 -0.069555186 0.13806425 -0.13208753 0.1635057 -0.2990186 -0.120949306 -0.1095042 -0.0014518775 -0.30771485 -0.3504906 0.20646565 0.07295832 -0.09789789 -0.18973453 0.38341054 -0.12027633 -0.21364824 -0.17978744 -0.2790455 0.030519392 -0.35699815 0.41920942 -0.15213272 0.5479913 -0.4253296 0.12013056 0.3180191 0.21400566 0.15185393 0.51515025 0.049388524 0.0056664348 0.026543034 0.23262984 0.20130497 -0.19295037 -0.6265504 -0.075773045 -0.24641906 0.16661678 0.11616397 -0.39199567 -0.03338017 -0.21440506 -0.07318958 -0.605774 -0.00045860006 -0.0021582677 0.37540045 -0.43884227 0.66870016 -0.5369386 -0.29863957 -0.29414436 0.22440013 0.4508183 0.40118513 0.17462668 0.13429773 0.5758679 -0.5689333 -0.013284068 0.2591208 0.18765588 -0.15420733
my -0.42772523 0.34585908 0.052013494 0.15468878 -0.39528525 0.3929861 -0.25889277 0.0046311803 0.03658002 0.24812569 0.13341829 -0.5461599 -0.34668037 0.021639407 0.9922957 0.08274327 -0.34041104 -0.32430845 0.14529602 -0.07700492 -0.7678739 -0.79824984 0.1882731 -0.3962963 0.30737936 0.09505208 0.11963902 0.25463328 -0.7163117 -0.8158747 0.49814448 0.5426975 0.38202178 0.07381239 -0.65043616 0.51980084 0.6168272 0.057409372 0.0635167 0.16029014 0.4419931 0.5512304 0.372126 0.927869 -0.80239433 -0.014841609 0.12940077 0.77334577 -0.121778384 -0.5654956 -0.17353262 0.6860355 -0.5815378 -0.49295327 -0.29737717 0.23046221 -0.3909896 0.05435369 0.20929629 0.23820506 -0.05230011 -0.07093607 -0.21893717 0.5748452 0.5522563 -0.5454206 -0.5301961 0.22124363 -0.49092138 -0.5122607 -0.6336596 -0.31435862 -0.26479012 -0.19314802 0.74926925 0.38995472 0.06937978 -0.32098565 -0.02653002 -0.44326618 0.36266237 -0.22668928 -0.06953736 0.5427444 0.40643024 -0.12564589 0.38740063 -0.040223386 0.55977523 0.20517753 0.5216794 -0.046491284 -0.0061528212 -0.055648156 -0.630947 -0.5065847 0.22263277 0.38927472 -0.14175124 -0.27564013
don’t -0.72444713 -0.20978253 0.24377458 -0.04132765 0.2431247 0.4943731 0.5137248 -0.5054463 0.8516663 0.07596594 0.29355243 0.20965302 -0.15234517 0.17817616 -0.045319136 0.07933114 0.16472167 0.48763227 0.21309038 -0.15401614 -0.1451835 0.107746854 -0.6816207 -0.4288077 -0.38844046 0.54881257 -0.08937102 0.09870762 -0.19129926 -0.41810626 0.66272694 0.07420042 0.27115577 0.7183885 -0.39898568 -0.19867639 -0.15052243 0.4168516 -0.25708166 -0.14616321 -0.090908095 0.3360744 -1.158387 0.04175228 0.34290445 0.3867417 -0.43524024 0.013062997 -0.17592552 0.9484874 -0.0777547 -0.4116938 -0.38048175 -0.36894366 -0.5016717 0.6050564 -0.60018384 -0.017097775 0.3695237 -0.3255991 -0.11061637 -0.05272139 0.5205779 0.71195793 0.44466302 -0.4005893 0.45828816 0.3407062 -0.089170925 0.57698435 0.3119438 -0.48533538 -0.73547864 0.09004735 0.055914797 -0.64796066 -0.113106385 -0.3888776 -0.2855433 -0.41968563 0.3412875 -0.005426194 0.0324979 -0.33806217 -0.025668029 -0.07988988 -0.67326665 -0.11979414 0.11426758 0.08672495 0.10620025 0.30675432 0.5241958 -0.1939347 0.25220352 -0.081368335 0.2675745 -0.058264952 0.46034786 0.22550902
hatter -0.05613383 -0.3126491 0.19099317 0.038927305 0.2997673 0.01102931 -0.41965297 -0.21476121 -0.5006361 -0.25017154 0.74708706 0.059510764 -0.5251485 -0.20096438 -0.6779657 0.44183674 -0.5748217 0.9724223 0.52151775 0.45595825 0.4700226 -0.097344965 -0.104987405 0.20931682 -0.720679 0.36219615 0.70460683 -0.29718852 -0.31958702 -0.67516625 -0.019986471 0.21374717 0.006658848 -0.23225884 0.24392089 -0.60503954 0.57521933 0.45443332 -0.3845397 0.6677396 0.45361945 -0.45001748 -0.70294684 0.2390708 0.6831966 -0.010572688 0.30571634 0.3103822 -0.18927535 -0.49253815 0.2803045 -0.83999276 -0.015716784 -0.5723476 0.32921705 -0.3083461 0.41845438 -0.15514372 -0.039748374 -0.42834783 0.36275962 -0.5835033 -0.23050134 0.12710294 0.26141712 0.6195879 0.17014253 0.10044348 -0.019276952 -0.40344197 -0.09487287 0.40702134 0.26960087 0.4709081 0.27080345 -0.34932965 0.20697138 0.36879414 -0.38193744 0.29468808 0.6186865 -0.49174094 -0.19768153 -0.6194779 0.42062953 -0.3943501 -0.02184112 0.5084255 0.16611238 -0.22486307 -1.0185887 0.10055691 -0.9169839 -0.103163965 -0.58740413 -0.015593877 0.038813036 0.019917706 0.044129185 -0.0048768683
tm -0.306379 0.12289607 0.4963597 0.10977121 0.20745245 -0.64158636 0.6134145 -0.15310775 -0.6789259 0.4553874 -0.10044279 0.092341125 -0.5475164 0.13106625 -0.44268763 -0.287986 0.4962386 -1.0020465 0.0006149513 0.28138617 0.209123 -1.1969284 -0.089105085 -0.18027425 -1.3860373 0.16866043 -0.6130279 -0.5417092 -0.50632495 0.7277936 -1.0411725 0.43920472 0.22986355 -0.678775 0.5252896 0.43115348 -0.061523657 -0.8295254 0.48479348 0.42833194 0.65744984 0.48186547 0.08991439 -0.062100038 0.8701359 -0.20043485 -0.034244735 -0.042759586 0.60537493 -1.0547037 0.0077420673 -0.7610685 0.8508333 0.55796164 0.03187103 0.09067899 -0.80683875 -1.2220619 -0.4629524 0.6941076 0.18502185 -1.1563584 0.48537934 -0.7737632 -1.3109362 -0.77757126 -1.2473104 0.30715033 0.3444043 0.9247427 -0.5077427 -0.42348427 -0.6266117 -0.09102103 0.42270586 0.023177259 0.97947043 0.16590025 0.9672773 -0.33168122 -0.353212 0.85952103 0.41836107 -0.10455661 -0.2842431 1.063996 0.28329414 -0.3466179 0.74804366 -0.63801724 0.4915248 0.58822125 -0.36585528 -0.41492358 0.30541065 0.8132569 0.19023108 -0.49348998 0.53240675 -0.30418023
how -0.85480404 -0.02679911 -0.39581817 -0.098883405 0.16287912 -0.0755851 0.6114762 -0.22840543 -0.059006564 0.7143764 -0.08603446 0.10839109 0.38131607 0.41153562 -0.08492781 -0.5541825 -0.073846884 -0.25324708 -0.053048864 -0.20436954 -0.29304242 -0.24643013 0.6467749 -0.10976035 0.15488471 -0.07348306 -0.03606024 0.2802614 -0.3928216 -0.15023614 -0.12778929 0.039507955 -0.29348397 0.7668641 -0.41693637 0.12837127 0.11978868 0.27045646 -0.02244275 -0.07097733 0.19784608 0.5412648 -0.18426113 0.103679426 0.13931575 0.5569471 -0.22917463 -0.60697913 0.14884517 0.44464883 -0.34050745 0.06368039 -0.35241905 -0.5059461 -0.380578 0.7915176 0.47228125 -0.33996156 0.11584494 0.06714025 0.0012611663 -0.5951135 -0.10061733 0.19773594 0.31057027 -0.52507526 0.11862856 0.2645672 -0.07379988 0.43225068 0.30682027 -0.3457842 -0.35448396 -0.14934723 0.05316064 -0.3243518 -0.005033375 -0.19031303 -0.10916821 -0.1372715 0.07746191 0.393128 -0.19356574 0.3647956 0.041688614 0.6438217 -0.38894194 -0.62053794 -0.015253844 -0.44048867 0.6011548 -0.007088513 0.43425706 -0.22941898 0.6255481 -0.05108898 -0.11366834 0.2595316 0.33857104 0.3723793
must 0.3435755 -0.1260854 0.2100508 0.08016723 0.33291107 0.20145229 0.17968914 -0.7236287 0.7721601 0.1495656 0.5198251 -0.13692182 0.6738812 0.117678516 0.04931611 0.009420662 0.102914006 0.635992 0.34573758 0.065737136 -0.2293838 -0.07991101 -0.46443275 -0.89864266 -0.9484575 -0.01437224 -0.5381589 -0.41445982 0.6462594 -0.008732761 0.35436642 0.13342656 0.0885577 0.81166023 0.6544669 -0.6682648 -0.41070142 0.14201061 0.17088893 -0.53979725 -0.63826334 -0.13691698 -0.8636552 -0.65846664 0.5102557 0.707901 -0.569473 -0.29827943 0.018479759 0.44749144 0.12073541 -0.24768591 0.39136693 0.3482695 -0.42246422 0.6336585 -0.39004144 -0.7058645 0.07707615 -0.19506171 -0.27609837 -0.15416071 0.2836831 -0.5436263 0.41152397 -0.22799653 -0.4203711 0.21551001 0.026561722 0.6361308 0.68670136 -0.38812444 -0.5288535 -0.23495355 0.6396096 -0.59782237 -0.18977201 -0.55351186 0.0029902027 0.98783386 0.6402367 -0.464693 -0.35645366 -0.04327833 0.16450055 -0.33310604 -0.10681046 0.4963246 0.21300702 -0.526232 -0.2899031 0.1662095 -0.15213788 0.07329676 -0.5882223 -0.43933922 -0.0514901 -0.21519022 0.4083236 -0.631575
other 0.039183073 -0.104351684 -0.404127 -0.5025683 -0.19429909 0.040395036 0.33818066 0.15471373 -0.65293026 0.40938765 -0.20398878 -0.19043127 -0.082880296 0.008206155 0.0048340163 0.16513094 0.4308561 -0.14702968 0.11153356 -0.09766177 0.5874895 -0.64047426 0.31127122 -0.72335845 -0.05968564 0.19336107 -0.0272511 -0.523505 -0.2723553 0.30481026 -0.5355944 0.19333698 0.12891418 -0.5727876 0.061593983 -0.013962169 -0.10847409 -0.39550775 -0.06310633 -0.022799598 -0.023290187 -0.087049864 0.6120965 -0.5456407 0.31901747 -0.5902033 -0.24517122 -0.14695218 0.56725335 -0.28378105 0.23091708 -0.103191584 0.082867816 0.026881274 -0.41102055 -0.3655462 0.2939374 0.1842138 -0.55289376 0.6479531 0.056118887 -0.31037793 -0.2377426 0.11772366 -0.6966689 -0.056398366 -0.29861408 -0.11036154 0.058476996 0.22910525 -0.44434264 0.46641487 0.36772373 0.4067328 0.31209934 -0.31212187 -0.15249003 0.47711635 0.6671106 0.03845565 0.35478693 0.24221347 0.1849574 -0.07108701 0.6411392 -0.28664982 -0.15429747 -0.5010413 0.7007828 -0.76536393 -0.35779423 -0.49954486 0.13007092 0.24006532 -0.39446354 -0.0030028878 -0.45036548 -0.15643165 0.036910474 -0.07756165
